svm_type c_svc
kernel_type rbf
gamma 0.000239
nr_class 2
total_sv 3126
rho -0.8780064583
label 1 -1
nr_sv 1563 1563
SV
10.0000000000 1:0.0000000000 2:0.4550000131 3:0.3650000095 4:0.0949999988 5:0.5139999986 6:0.2245000005 7:0.1010000035 8:0.1500000060 
-10.0000000000 1:2.0000000000 2:0.5299999714 3:0.4199999869 4:0.1350000054 5:0.6769999862 6:0.2565000057 7:0.1414999962 8:0.2099999934 
10.0000000000 1:0.0000000000 2:0.4399999976 3:0.3650000095 4:0.1250000000 5:0.5159999728 6:0.2154999971 7:0.1140000001 8:0.1550000012 
-10.0000000000 1:1.0000000000 2:0.4250000119 3:0.3000000119 4:0.0949999988 5:0.3515000045 6:0.1410000026 7:0.0775000006 8:0.1199999973 
10.0000000000 1:2.0000000000 2:0.5299999714 3:0.4149999917 4:0.1500000060 5:0.7774999738 6:0.2370000035 7:0.1414999962 8:0.3300000131 
10.0000000000 1:2.0000000000 2:0.5450000167 3:0.4250000119 4:0.1250000000 5:0.7680000067 6:0.2939999998 7:0.1494999975 8:0.2599999905 
-10.0000000000 1:0.0000000000 2:0.4749999940 3:0.3700000048 4:0.1250000000 5:0.5095000267 6:0.2164999992 7:0.1124999970 8:0.1650000066 
10.0000000000 1:2.0000000000 2:0.5500000119 3:0.4399999976 4:0.1500000060 5:0.8945000172 6:0.3145000041 7:0.1509999931 8:0.3199999928 
10.0000000000 1:2.0000000000 2:0.5249999762 3:0.3799999952 4:0.1400000006 5:0.6065000296 6:0.1940000057 7:0.1474999934 8:0.2099999934 
10.0000000000 1:0.0000000000 2:0.4300000072 3:0.3499999940 4:0.1099999994 5:0.4059999883 6:0.1675000042 7:0.0810000002 8:0.1350000054 
10.0000000000 1:0.0000000000 2:0.4900000095 3:0.3799999952 4:0.1350000054 5:0.5414999723 6:0.2175000012 7:0.0949999988 8:0.1899999976 
10.0000000000 1:2.0000000000 2:0.5350000262 3:0.4050000012 4:0.1449999958 5:0.6844999790 6:0.2725000083 7:0.1710000038 8:0.2049999982 
10.0000000000 1:2.0000000000 2:0.4699999988 3:0.3549999893 4:0.1000000015 5:0.4754999876 6:0.1675000042 7:0.0804999992 8:0.1850000024 
10.0000000000 1:0.0000000000 2:0.5000000000 3:0.4000000060 4:0.1299999952 5:0.6644999981 6:0.2579999864 7:0.1330000013 8:0.2399999946 
-10.0000000000 1:1.0000000000 2:0.3549999893 3:0.2800000012 4:0.0850000009 5:0.2904999852 6:0.0949999988 7:0.0395000018 8:0.1150000021 
10.0000000000 1:2.0000000000 2:0.4399999976 3:0.3400000036 4:0.1000000015 5:0.4510000050 6:0.1879999936 7:0.0869999975 8:0.1299999952 
-10.0000000000 1:0.0000000000 2:0.4499999881 3:0.3199999928 4:0.1000000015 5:0.3810000122 6:0.1704999954 7:0.0750000030 8:0.1150000021 
10.0000000000 1:0.0000000000 2:0.3549999893 3:0.2800000012 4:0.0949999988 5:0.2454999983 6:0.0954999998 7:0.0619999990 8:0.0750000030 
10.0000000000 1:1.0000000000 2:0.3799999952 3:0.2750000060 4:0.1000000015 5:0.2255000025 6:0.0799999982 7:0.0489999987 8:0.0850000009 
10.0000000000 1:2.0000000000 2:0.5649999976 3:0.4399999976 4:0.1550000012 5:0.9394999743 6:0.4275000095 7:0.2140000015 8:0.2700000107 
-10.0000000000 1:2.0000000000 2:0.5500000119 3:0.4149999917 4:0.1350000054 5:0.7634999752 6:0.3179999888 7:0.2099999934 8:0.2000000030 
10.0000000000 1:2.0000000000 2:0.6150000095 3:0.4799999893 4:0.1650000066 5:1.1614999771 6:0.5130000114 7:0.3009999990 8:0.3050000072 
10.0000000000 1:2.0000000000 2:0.5600000024 3:0.4399999976 4:0.1400000006 5:0.9284999967 6:0.3824999928 7:0.1879999936 8:0.3000000119 
10.0000000000 1:2.0000000000 2:0.5799999833 3:0.4499999881 4:0.1850000024 5:0.9955000281 6:0.3944999874 7:0.2720000148 8:0.2849999964 
10.0000000000 1:0.0000000000 2:0.5899999738 3:0.4449999928 4:0.1400000006 5:0.9309999943 6:0.3560000062 7:0.2339999974 8:0.2800000012 
10.0000000000 1:0.0000000000 2:0.6050000191 3:0.4749999940 4:0.1800000072 5:0.9365000129 6:0.3939999938 7:0.2189999968 8:0.2949999869 
10.0000000000 1:0.0000000000 2:0.5749999881 3:0.4250000119 4:0.1400000006 5:0.8634999990 6:0.3930000067 7:0.2269999981 8:0.2000000030 
10.0000000000 1:0.0000000000 2:0.5799999833 3:0.4699999988 4:0.1650000066 5:0.9975000024 6:0.3935000002 7:0.2419999987 8:0.3300000131 
10.0000000000 1:0.0000000000 2:0.6650000215 3:0.5249999762 4:0.1650000066 5:1.3380000591 6:0.5515000224 7:0.3574999869 8:0.3499999940 
-10.0000000000 1:0.0000000000 2:0.4650000036 3:0.3549999893 4:0.1049999967 5:0.4794999957 6:0.2269999981 7:0.1239999980 8:0.1250000000 
10.0000000000 1:2.0000000000 2:0.5400000215 3:0.4749999940 4:0.1550000012 5:1.2170000076 6:0.5304999948 7:0.3075000048 8:0.3400000036 
-10.0000000000 1:2.0000000000 2:0.4499999881 3:0.3549999893 4:0.1049999967 5:0.5224999785 6:0.2370000035 7:0.1164999977 8:0.1449999958 
10.0000000000 1:2.0000000000 2:0.5749999881 3:0.4449999928 4:0.1350000054 5:0.8830000162 6:0.3810000122 7:0.2035000026 8:0.2599999905 
-10.0000000000 1:0.0000000000 2:0.3549999893 3:0.2899999917 4:0.0900000036 5:0.3274999857 6:0.1340000033 7:0.0860000029 8:0.0900000036 
-10.0000000000 1:2.0000000000 2:0.4499999881 3:0.3350000083 4:0.1049999967 5:0.4250000119 6:0.1864999980 7:0.0909999982 8:0.1150000021 
10.0000000000 1:2.0000000000 2:0.5500000119 3:0.4250000119 4:0.1350000054 5:0.8514999747 6:0.3619999886 7:0.1959999949 8:0.2700000107 
-10.0000000000 1:0.0000000000 2:0.4699999988 3:0.3700000048 4:0.1199999973 5:0.5795000196 6:0.2930000126 7:0.2269999981 8:0.1400000006 
-10.0000000000 1:2.0000000000 2:0.4600000083 3:0.3750000000 4:0.1199999973 5:0.4605000019 6:0.1774999946 7:0.1099999994 8:0.1500000060 
-10.0000000000 1:2.0000000000 2:0.5249999762 3:0.4250000119 4:0.1599999964 5:0.8355000019 6:0.3544999957 7:0.2134999931 8:0.2450000048 
-10.0000000000 1:1.0000000000 2:0.5199999809 3:0.4099999964 4:0.1199999973 5:0.5950000286 6:0.2384999990 7:0.1110000014 8:0.1899999976 
-10.0000000000 1:0.0000000000 2:0.4000000060 3:0.3199999928 4:0.0949999988 5:0.3030000031 6:0.1334999949 7:0.0599999987 8:0.1000000015 
10.0000000000 1:0.0000000000 2:0.4850000143 3:0.3600000143 4:0.1299999952 5:0.5414999723 6:0.2594999969 7:0.0960000008 8:0.1599999964 
10.0000000000 1:2.0000000000 2:0.4699999988 3:0.3600000143 4:0.1199999973 5:0.4774999917 6:0.2105000019 7:0.1054999977 8:0.1500000060 
-10.0000000000 1:0.0000000000 2:0.4050000012 3:0.3100000024 4:0.1000000015 5:0.3849999905 6:0.1729999930 7:0.0914999992 8:0.1099999994 
-10.0000000000 1:2.0000000000 2:0.5000000000 3:0.4000000060 4:0.1400000006 5:0.6614999771 6:0.2565000057 7:0.1755000055 8:0.2199999988 
-10.0000000000 1:0.0000000000 2:0.4449999928 3:0.3499999940 4:0.1199999973 5:0.4424999952 6:0.1920000017 7:0.0954999998 8:0.1350000054 
-10.0000000000 1:0.0000000000 2:0.4699999988 3:0.3849999905 4:0.1350000054 5:0.5895000100 6:0.2764999866 7:0.1199999973 8:0.1700000018 
-10.0000000000 1:2.0000000000 2:0.5049999952 3:0.4000000060 4:0.1250000000 5:0.5830000043 6:0.2460000068 7:0.1299999952 8:0.1749999970 
-10.0000000000 1:0.0000000000 2:0.4499999881 3:0.3449999988 4:0.1049999967 5:0.4115000069 6:0.1800000072 7:0.1124999970 8:0.1350000054 
-10.0000000000 1:0.0000000000 2:0.5049999952 3:0.4050000012 4:0.1099999994 5:0.6250000000 6:0.3050000072 7:0.1599999964 8:0.1749999970 
10.0000000000 1:2.0000000000 2:0.5299999714 3:0.4099999964 4:0.1299999952 5:0.6965000033 6:0.3019999862 7:0.1934999973 8:0.2000000030 
-10.0000000000 1:0.0000000000 2:0.4250000119 3:0.3249999881 4:0.0949999988 5:0.3785000145 6:0.1704999954 7:0.0799999982 8:0.1000000015 
-10.0000000000 1:0.0000000000 2:0.5199999809 3:0.4000000060 4:0.1199999973 5:0.5799999833 6:0.2339999974 7:0.1315000057 8:0.1850000024 
-10.0000000000 1:0.0000000000 2:0.4749999940 3:0.3549999893 4:0.1199999973 5:0.4799999893 6:0.2339999974 7:0.1014999971 8:0.1350000054 
10.0000000000 1:2.0000000000 2:0.5649999976 3:0.4399999976 4:0.1599999964 5:0.9150000215 6:0.3540000021 7:0.1934999973 8:0.3199999928 
10.0000000000 1:2.0000000000 2:0.5950000286 3:0.4950000048 4:0.1850000024 5:1.2849999666 6:0.4160000086 7:0.2240000069 8:0.4850000143 
10.0000000000 1:2.0000000000 2:0.4749999940 3:0.3899999857 4:0.1199999973 5:0.5304999948 6:0.2134999931 7:0.1155000031 8:0.1700000018 
10.0000000000 1:0.0000000000 2:0.5550000072 3:0.4250000119 4:0.1299999952 5:0.7664999962 6:0.2639999986 7:0.1679999977 8:0.2750000060 
-10.0000000000 1:2.0000000000 2:0.4000000060 3:0.3199999928 4:0.1099999994 5:0.3529999852 6:0.1404999942 7:0.0984999985 8:0.1000000015 
10.0000000000 1:2.0000000000 2:0.5950000286 3:0.4749999940 4:0.1700000018 5:1.2469999790 6:0.4799999893 7:0.2249999940 8:0.4250000119 
10.0000000000 1:0.0000000000 2:0.5699999928 3:0.4799999893 4:0.1749999970 5:1.1849999428 6:0.4740000069 7:0.2610000074 8:0.3799999952 
10.0000000000 1:2.0000000000 2:0.6050000191 3:0.4499999881 4:0.1949999928 5:1.0980000496 6:0.4810000062 7:0.2894999981 8:0.3149999976 
10.0000000000 1:2.0000000000 2:0.6000000238 3:0.4749999940 4:0.1500000060 5:1.0075000525 6:0.4424999952 7:0.2210000008 8:0.2800000012 
-10.0000000000 1:0.0000000000 2:0.5950000286 3:0.4749999940 4:0.1400000006 5:0.9440000057 6:0.3625000119 7:0.1889999956 8:0.3149999976 
10.0000000000 1:2.0000000000 2:0.6000000238 3:0.4699999988 4:0.1500000060 5:0.9219999909 6:0.3630000055 7:0.1940000057 8:0.3050000072 
10.0000000000 1:2.0000000000 2:0.5550000072 3:0.4250000119 4:0.1400000006 5:0.7879999876 6:0.2820000052 7:0.1595000029 8:0.2849999964 
10.0000000000 1:2.0000000000 2:0.6150000095 3:0.4749999940 4:0.1700000018 5:1.1024999619 6:0.4695000052 7:0.2354999930 8:0.3449999988 
-10.0000000000 1:2.0000000000 2:0.5749999881 3:0.4449999928 4:0.1400000006 5:0.9409999847 6:0.3844999969 7:0.2520000041 8:0.2849999964 
10.0000000000 1:2.0000000000 2:0.5199999809 3:0.4250000119 4:0.1650000066 5:0.9884999990 6:0.3959999979 7:0.2249999940 8:0.3199999928 
10.0000000000 1:0.0000000000 2:0.5950000286 3:0.4749999940 4:0.1599999964 5:1.3174999952 6:0.4079999924 7:0.2339999974 8:0.5799999833 
10.0000000000 1:0.0000000000 2:0.5799999833 3:0.4499999881 4:0.1400000006 5:1.0130000114 6:0.3799999952 7:0.2160000056 8:0.3600000143 
10.0000000000 1:2.0000000000 2:0.5699999928 3:0.4650000036 4:0.1800000072 5:1.2949999571 6:0.3389999866 7:0.2224999964 8:0.4399999976 
10.0000000000 1:0.0000000000 2:0.6250000000 3:0.4650000036 4:0.1400000006 5:1.1950000525 6:0.4824999869 7:0.2049999982 8:0.4000000060 
10.0000000000 1:0.0000000000 2:0.5600000024 3:0.4399999976 4:0.1599999964 5:0.8644999862 6:0.3305000067 7:0.2074999958 8:0.2599999905 
-10.0000000000 1:2.0000000000 2:0.4600000083 3:0.3549999893 4:0.1299999952 5:0.5170000196 6:0.2205000073 7:0.1140000001 8:0.1650000066 
10.0000000000 1:2.0000000000 2:0.5749999881 3:0.4499999881 4:0.1599999964 5:0.9775000215 6:0.3134999871 7:0.2310000062 8:0.3300000131 
10.0000000000 1:0.0000000000 2:0.5649999976 3:0.4250000119 4:0.1350000054 5:0.8115000129 6:0.3409999907 7:0.1675000042 8:0.2549999952 
10.0000000000 1:0.0000000000 2:0.5550000072 3:0.4399999976 4:0.1500000060 5:0.7549999952 6:0.3070000112 7:0.1525000036 8:0.2599999905 
10.0000000000 1:0.0000000000 2:0.5950000286 3:0.4650000036 4:0.1749999970 5:1.1150000095 6:0.4014999866 7:0.2540000081 8:0.3899999857 
10.0000000000 1:2.0000000000 2:0.6250000000 3:0.4950000048 4:0.1650000066 5:1.2619999647 6:0.5070000291 7:0.3179999888 8:0.3899999857 
-10.0000000000 1:0.0000000000 2:0.5350000262 3:0.4350000024 4:0.1500000060 5:0.7250000238 6:0.2689999938 7:0.1385000050 8:0.2500000000 
-10.0000000000 1:0.0000000000 2:0.4699999988 3:0.3750000000 4:0.1299999952 5:0.5230000019 6:0.2140000015 7:0.1319999993 8:0.1449999958 
-10.0000000000 1:0.0000000000 2:0.4699999988 3:0.3700000048 4:0.1299999952 5:0.5224999785 6:0.2010000050 7:0.1330000013 8:0.1650000066 
10.0000000000 1:2.0000000000 2:0.4749999940 3:0.3750000000 4:0.1250000000 5:0.5784999728 6:0.2775000036 7:0.0850000009 8:0.1550000012 
10.0000000000 1:0.0000000000 2:0.5500000119 3:0.4350000024 4:0.1449999958 5:0.8429999948 6:0.3280000091 7:0.1914999932 8:0.2549999952 
10.0000000000 1:0.0000000000 2:0.5299999714 3:0.4350000024 4:0.1599999964 5:0.8830000162 6:0.3160000145 7:0.1640000045 8:0.3350000083 
10.0000000000 1:0.0000000000 2:0.5299999714 3:0.4149999917 4:0.1400000006 5:0.7239999771 6:0.3104999959 7:0.1675000042 8:0.2049999982 
10.0000000000 1:0.0000000000 2:0.6050000191 3:0.4699999988 4:0.1599999964 5:1.1734999418 6:0.4975000024 7:0.2405000031 8:0.3449999988 
10.0000000000 1:2.0000000000 2:0.5199999809 3:0.4099999964 4:0.1550000012 5:0.7269999981 6:0.2910000086 7:0.1835000068 8:0.2349999994 
10.0000000000 1:2.0000000000 2:0.5450000167 3:0.4300000072 4:0.1650000066 5:0.8019999862 6:0.2935000062 7:0.1829999983 8:0.2800000012 
10.0000000000 1:2.0000000000 2:0.5000000000 3:0.4000000060 4:0.1250000000 5:0.6675000191 6:0.2610000074 7:0.1315000057 8:0.2199999988 
-10.0000000000 1:2.0000000000 2:0.5099999905 3:0.3899999857 4:0.1350000054 5:0.6334999800 6:0.2310000062 7:0.1790000051 8:0.2000000030 
-10.0000000000 1:2.0000000000 2:0.4350000024 3:0.3950000107 4:0.1049999967 5:0.3634999990 6:0.1360000074 7:0.0979999974 8:0.1299999952 
-10.0000000000 1:0.0000000000 2:0.4950000048 3:0.3950000107 4:0.1250000000 5:0.5414999723 6:0.2374999970 7:0.1344999969 8:0.1550000012 
-10.0000000000 1:0.0000000000 2:0.4650000036 3:0.3600000143 4:0.1049999967 5:0.4309999943 6:0.1720000058 7:0.1070000008 8:0.1749999970 
-10.0000000000 1:1.0000000000 2:0.4350000024 3:0.3199999928 4:0.0799999982 5:0.3325000107 6:0.1484999955 7:0.0635000020 8:0.1049999967 
-10.0000000000 1:0.0000000000 2:0.4250000119 3:0.3499999940 4:0.1049999967 5:0.3930000067 6:0.1299999952 7:0.0630000010 8:0.1650000066 
10.0000000000 1:2.0000000000 2:0.5450000167 3:0.4099999964 4:0.1250000000 5:0.6934999824 6:0.2975000143 7:0.1459999979 8:0.2099999934 
10.0000000000 1:2.0000000000 2:0.5299999714 3:0.4149999917 4:0.1150000021 5:0.5914999843 6:0.2329999954 7:0.1585000008 8:0.1800000072 
10.0000000000 1:2.0000000000 2:0.4900000095 3:0.3750000000 4:0.1350000054 5:0.6125000119 6:0.2554999888 7:0.1019999981 8:0.2199999988 
10.0000000000 1:0.0000000000 2:0.4399999976 3:0.3400000036 4:0.1049999967 5:0.4020000100 6:0.1305000037 7:0.0954999998 8:0.1650000066 
-10.0000000000 1:2.0000000000 2:0.5600000024 3:0.4300000072 4:0.1500000060 5:0.8824999928 6:0.3465000093 7:0.1720000058 8:0.3100000024 
-10.0000000000 1:2.0000000000 2:0.4699999988 3:0.3650000095 4:0.1049999967 5:0.4205000103 6:0.1630000025 7:0.1035000011 8:0.1400000006 
10.0000000000 1:2.0000000000 2:0.5149999857 3:0.4250000119 4:0.1400000006 5:0.7659999728 6:0.3039999902 7:0.1724999994 8:0.2549999952 
10.0000000000 1:0.0000000000 2:0.5950000286 3:0.4799999893 4:0.1650000066 5:1.2619999647 6:0.4835000038 7:0.2829999924 8:0.4099999964 
-10.0000000000 1:2.0000000000 2:0.4399999976 3:0.3499999940 4:0.1250000000 5:0.4034999907 6:0.1749999970 7:0.0630000010 8:0.1289999932 
-10.0000000000 1:2.0000000000 2:0.4250000119 3:0.3300000131 4:0.1150000021 5:0.4059999883 6:0.1634999961 7:0.0810000002 8:0.1354999989 
-10.0000000000 1:2.0000000000 2:0.4050000012 3:0.3249999881 4:0.1099999994 5:0.3555000126 6:0.1509999931 7:0.0630000010 8:0.1169999987 
10.0000000000 1:2.0000000000 2:0.5649999976 3:0.4449999928 4:0.1550000012 5:0.8259999752 6:0.3409999907 7:0.2055000067 8:0.2475000024 
10.0000000000 1:2.0000000000 2:0.5500000119 3:0.4499999881 4:0.1449999958 5:0.7409999967 6:0.2949999869 7:0.1435000002 8:0.2664999962 
10.0000000000 1:0.0000000000 2:0.6499999762 3:0.5199999809 4:0.1899999976 5:1.3444999456 6:0.5189999938 7:0.3059999943 8:0.4465000033 
10.0000000000 1:0.0000000000 2:0.5600000024 3:0.4550000131 4:0.1550000012 5:0.7969999909 6:0.3400000036 7:0.1899999976 8:0.2425000072 
10.0000000000 1:0.0000000000 2:0.4749999940 3:0.3750000000 4:0.1299999952 5:0.5174999833 6:0.2074999958 7:0.1164999977 8:0.1700000018 
10.0000000000 1:2.0000000000 2:0.4900000095 3:0.3799999952 4:0.1250000000 5:0.5490000248 6:0.2450000048 7:0.1075000018 8:0.1739999950 
10.0000000000 1:0.0000000000 2:0.4600000083 3:0.3499999940 4:0.1199999973 5:0.5149999857 6:0.2240000069 7:0.1080000028 8:0.1564999968 
10.0000000000 1:0.0000000000 2:0.5899999738 3:0.4749999940 4:0.1449999958 5:1.0529999733 6:0.4415000081 7:0.2619999945 8:0.3249999881 
-10.0000000000 1:2.0000000000 2:0.6050000191 3:0.5000000000 4:0.1850000024 5:1.1184999943 6:0.4690000117 7:0.2585000098 8:0.3350000083 
10.0000000000 1:2.0000000000 2:0.6050000191 3:0.4850000143 4:0.1599999964 5:1.0564999580 6:0.3700000048 7:0.2354999930 8:0.3549999893 
10.0000000000 1:2.0000000000 2:0.5649999976 3:0.4499999881 4:0.1350000054 5:0.9884999990 6:0.3869999945 7:0.1494999975 8:0.3100000024 
10.0000000000 1:0.0000000000 2:0.5149999857 3:0.4050000012 4:0.1299999952 5:0.7220000029 6:0.3199999928 7:0.1309999973 8:0.2099999934 
10.0000000000 1:2.0000000000 2:0.5749999881 3:0.4600000083 4:0.1899999976 5:0.9940000176 6:0.3919999897 7:0.2425000072 8:0.3400000036 
10.0000000000 1:2.0000000000 2:0.5799999833 3:0.4550000131 4:0.1700000018 5:0.9075000286 6:0.3740000129 7:0.2134999931 8:0.2849999964 
10.0000000000 1:2.0000000000 2:0.5749999881 3:0.4600000083 4:0.1650000066 5:1.1239999533 6:0.2985000014 7:0.1784999967 8:0.4399999976 
10.0000000000 1:0.0000000000 2:0.6050000191 3:0.4650000036 4:0.1650000066 5:1.0559999943 6:0.4214999974 7:0.2475000024 8:0.3400000036 
10.0000000000 1:2.0000000000 2:0.6050000191 3:0.4850000143 4:0.1599999964 5:1.2220000029 6:0.5299999714 7:0.2574999928 8:0.2800000012 
10.0000000000 1:0.0000000000 2:0.6100000143 3:0.4850000143 4:0.1749999970 5:1.2445000410 6:0.5440000296 7:0.2969999909 8:0.3449999988 
-10.0000000000 1:2.0000000000 2:0.5299999714 3:0.3950000107 4:0.1449999958 5:0.7749999762 6:0.3079999983 7:0.1689999998 8:0.2549999952 
-10.0000000000 1:0.0000000000 2:0.5249999762 3:0.4350000024 4:0.1550000012 5:1.0650000572 6:0.4860000014 7:0.2329999954 8:0.2849999964 
-10.0000000000 1:2.0000000000 2:0.5199999809 3:0.4050000012 4:0.1150000021 5:0.7760000229 6:0.3199999928 7:0.1844999939 8:0.2199999988 
10.0000000000 1:0.0000000000 2:0.5799999833 3:0.4749999940 4:0.1500000060 5:0.9700000286 6:0.3849999905 7:0.2164999992 8:0.3499999940 
10.0000000000 1:0.0000000000 2:0.5699999928 3:0.4799999893 4:0.1800000072 5:0.9394999743 6:0.3989999890 7:0.2000000030 8:0.2949999869 
10.0000000000 1:2.0000000000 2:0.5600000024 3:0.4499999881 4:0.1599999964 5:1.0234999657 6:0.4289999902 7:0.2680000067 8:0.3000000119 
10.0000000000 1:2.0000000000 2:0.6200000048 3:0.4749999940 4:0.1749999970 5:1.0164999962 6:0.4354999959 7:0.2140000015 8:0.3249999881 
10.0000000000 1:0.0000000000 2:0.6200000048 3:0.4900000095 4:0.1899999976 5:1.2180000544 6:0.5454999804 7:0.2964999974 8:0.3549999893 
10.0000000000 1:2.0000000000 2:0.6299999952 3:0.4799999893 4:0.1500000060 5:1.0525000095 6:0.3919999897 7:0.3359999955 8:0.2849999964 
10.0000000000 1:2.0000000000 2:0.6299999952 3:0.4799999893 4:0.1599999964 5:1.1990000010 6:0.5264999866 7:0.3350000083 8:0.3149999976 
-10.0000000000 1:2.0000000000 2:0.5849999785 3:0.4600000083 4:0.1700000018 5:0.9325000048 6:0.3650000095 7:0.2709999979 8:0.2899999917 
10.0000000000 1:0.0000000000 2:0.6150000095 3:0.4799999893 4:0.1800000072 5:1.1595000029 6:0.4844999909 7:0.2164999992 8:0.3249999881 
10.0000000000 1:0.0000000000 2:0.6100000143 3:0.4850000143 4:0.1700000018 5:1.0225000381 6:0.4189999998 7:0.2405000031 8:0.3600000143 
10.0000000000 1:0.0000000000 2:0.5799999833 3:0.4499999881 4:0.1500000060 5:0.9269999862 6:0.2759999931 7:0.1815000027 8:0.3600000143 
10.0000000000 1:2.0000000000 2:0.5099999905 3:0.4000000060 4:0.1400000006 5:0.8144999743 6:0.4589999914 7:0.1965000033 8:0.1949999928 
10.0000000000 1:0.0000000000 2:0.5000000000 3:0.4050000012 4:0.1550000012 5:0.7720000148 6:0.3459999859 7:0.1535000056 8:0.2450000048 
10.0000000000 1:2.0000000000 2:0.5049999952 3:0.4099999964 4:0.1500000060 5:0.6439999938 6:0.2849999964 7:0.1449999958 8:0.2099999934 
10.0000000000 1:0.0000000000 2:0.6399999857 3:0.5000000000 4:0.1850000024 5:1.3035000563 6:0.4444999993 7:0.2635000050 8:0.4650000036 
10.0000000000 1:0.0000000000 2:0.5600000024 3:0.4499999881 4:0.1599999964 5:0.9219999909 6:0.4320000112 7:0.1780000031 8:0.2599999905 
10.0000000000 1:0.0000000000 2:0.5849999785 3:0.4600000083 4:0.1850000024 5:0.9219999909 6:0.3634999990 7:0.2129999995 8:0.2849999964 
-10.0000000000 1:2.0000000000 2:0.4499999881 3:0.3449999988 4:0.1199999973 5:0.4165000021 6:0.1655000001 7:0.0949999988 8:0.1350000054 
10.0000000000 1:0.0000000000 2:0.5000000000 3:0.4000000060 4:0.1650000066 5:0.8249999881 6:0.2540000081 7:0.2049999982 8:0.2849999964 
10.0000000000 1:2.0000000000 2:0.5000000000 3:0.4000000060 4:0.1449999958 5:0.6299999952 6:0.2339999974 7:0.1465000063 8:0.2300000042 
10.0000000000 1:2.0000000000 2:0.5299999714 3:0.4350000024 4:0.1700000018 5:0.8155000210 6:0.2985000014 7:0.1550000012 8:0.2750000060 
-10.0000000000 1:0.0000000000 2:0.4199999869 3:0.3350000083 4:0.1150000021 5:0.3689999878 6:0.1710000038 7:0.0710000023 8:0.1199999973 
-10.0000000000 1:2.0000000000 2:0.4399999976 3:0.3400000036 4:0.1400000006 5:0.4819999933 6:0.1860000044 7:0.1084999964 8:0.1599999964 
-10.0000000000 1:1.0000000000 2:0.4000000060 3:0.3000000119 4:0.1099999994 5:0.3149999976 6:0.1089999974 7:0.0670000017 8:0.1199999973 
-10.0000000000 1:1.0000000000 2:0.4350000024 3:0.3400000036 4:0.1099999994 5:0.3795000017 6:0.1494999975 7:0.0850000009 8:0.1199999973 
10.0000000000 1:2.0000000000 2:0.5249999762 3:0.4149999917 4:0.1700000018 5:0.8324999809 6:0.2754999995 7:0.1685000062 8:0.3100000024 
-10.0000000000 1:1.0000000000 2:0.3700000048 3:0.2800000012 4:0.0949999988 5:0.2655000091 6:0.1220000014 7:0.0520000011 8:0.0799999982 
10.0000000000 1:2.0000000000 2:0.4900000095 3:0.3650000095 4:0.1449999958 5:0.6345000267 6:0.1994999945 7:0.1624999940 8:0.2199999988 
10.0000000000 1:2.0000000000 2:0.4149999917 3:0.3249999881 4:0.1049999967 5:0.3799999952 6:0.1595000029 7:0.0785000026 8:0.1199999973 
-10.0000000000 1:0.0000000000 2:0.5000000000 3:0.4050000012 4:0.1400000006 5:0.6154999733 6:0.2409999967 7:0.1354999989 8:0.2049999982 
10.0000000000 1:2.0000000000 2:0.4850000143 3:0.3950000107 4:0.1599999964 5:0.6600000262 6:0.2475000024 7:0.1280000061 8:0.2349999994 
10.0000000000 1:0.0000000000 2:0.5500000119 3:0.4050000012 4:0.1400000006 5:0.8025000095 6:0.2440000027 7:0.1634999961 8:0.2549999952 
-10.0000000000 1:0.0000000000 2:0.4499999881 3:0.3499999940 4:0.1299999952 5:0.4600000083 6:0.1739999950 7:0.1110000014 8:0.1350000054 
-10.0000000000 1:1.0000000000 2:0.4050000012 3:0.3000000119 4:0.1199999973 5:0.3240000010 6:0.1264999956 7:0.0700000003 8:0.1099999994 
10.0000000000 1:0.0000000000 2:0.4699999988 3:0.3600000143 4:0.1350000054 5:0.5009999871 6:0.1665000021 7:0.1150000021 8:0.1650000066 
-10.0000000000 1:2.0000000000 2:0.4149999917 3:0.3050000072 4:0.1299999952 5:0.3199999928 6:0.1305000037 7:0.0754999965 8:0.1049999967 
-10.0000000000 1:2.0000000000 2:0.4449999928 3:0.3249999881 4:0.1250000000 5:0.4550000131 6:0.1784999967 7:0.1124999970 8:0.1400000006 
10.0000000000 1:2.0000000000 2:0.4699999988 3:0.3499999940 4:0.1449999958 5:0.5174999833 6:0.1870000064 7:0.1234999970 8:0.1800000072 
-10.0000000000 1:2.0000000000 2:0.4900000095 3:0.3750000000 4:0.1500000060 5:0.5755000114 6:0.2199999988 7:0.1439999938 8:0.1899999976 
10.0000000000 1:2.0000000000 2:0.4449999928 3:0.3549999893 4:0.1500000060 5:0.4850000143 6:0.1809999943 7:0.1250000000 8:0.1550000012 
10.0000000000 1:1.0000000000 2:0.4250000119 3:0.3799999952 4:0.1049999967 5:0.3264999986 6:0.1284999996 7:0.0785000026 8:0.1000000015 
-10.0000000000 1:2.0000000000 2:0.5000000000 3:0.3700000048 4:0.1350000054 5:0.4499999881 6:0.1714999974 7:0.1054999977 8:0.1550000012 
-10.0000000000 1:2.0000000000 2:0.3899999857 3:0.2899999917 4:0.1250000000 5:0.3055000007 6:0.1209999993 7:0.0820000023 8:0.0900000036 
10.0000000000 1:2.0000000000 2:0.5799999833 3:0.4650000036 4:0.1650000066 5:1.1015000343 6:0.4040000141 7:0.2094999999 8:0.3499999940 
10.0000000000 1:2.0000000000 2:0.5299999714 3:0.4149999917 4:0.1599999964 5:0.7829999924 6:0.2935000062 7:0.1580000073 8:0.2450000048 
10.0000000000 1:0.0000000000 2:0.5550000072 3:0.4449999928 4:0.1350000054 5:0.8360000253 6:0.3359999955 7:0.1624999940 8:0.2750000060 
10.0000000000 1:0.0000000000 2:0.5649999976 3:0.4399999976 4:0.1749999970 5:0.9024999738 6:0.3100000024 7:0.1930000037 8:0.3249999881 
10.0000000000 1:1.0000000000 2:0.4399999976 3:0.3499999940 4:0.1350000054 5:0.4350000024 6:0.1815000027 7:0.0829999968 8:0.1250000000 
10.0000000000 1:0.0000000000 2:0.5649999976 3:0.4250000119 4:0.1599999964 5:0.9424999952 6:0.3495000005 7:0.2185000032 8:0.2750000060 
10.0000000000 1:1.0000000000 2:0.3499999940 3:0.2599999905 4:0.0850000009 5:0.1739999950 6:0.0705000013 7:0.0344999991 8:0.0599999987 
10.0000000000 1:1.0000000000 2:0.3199999928 3:0.2450000048 4:0.0799999982 5:0.1585000008 6:0.0635000020 7:0.0324999988 8:0.0500000007 
10.0000000000 1:0.0000000000 2:0.5899999738 3:0.4699999988 4:0.1800000072 5:1.1234999895 6:0.4205000103 7:0.2804999948 8:0.3600000143 
10.0000000000 1:2.0000000000 2:0.5950000286 3:0.4550000131 4:0.1550000012 5:1.0605000257 6:0.5134999752 7:0.2164999992 8:0.3000000119 
10.0000000000 1:2.0000000000 2:0.5749999881 3:0.4600000083 4:0.1850000024 5:1.0939999819 6:0.4485000074 7:0.2169999927 8:0.3449999988 
10.0000000000 1:0.0000000000 2:0.6000000238 3:0.4950000048 4:0.1650000066 5:1.2415000200 6:0.4850000143 7:0.2775000036 8:0.3400000036 
10.0000000000 1:0.0000000000 2:0.5600000024 3:0.4499999881 4:0.1749999970 5:1.0110000372 6:0.3835000098 7:0.2064999938 8:0.3700000048 
10.0000000000 1:0.0000000000 2:0.5600000024 3:0.4499999881 4:0.1850000024 5:1.0700000525 6:0.3804999888 7:0.1749999970 8:0.4099999964 
10.0000000000 1:0.0000000000 2:0.5450000167 3:0.4600000083 4:0.1599999964 5:0.8974999785 6:0.3409999907 7:0.1655000001 8:0.3449999988 
10.0000000000 1:2.0000000000 2:0.5899999738 3:0.4749999940 4:0.1599999964 5:1.1015000343 6:0.4774999917 7:0.2554999888 8:0.2949999869 
10.0000000000 1:2.0000000000 2:0.5400000215 3:0.4749999940 4:0.1550000012 5:0.9279999733 6:0.3939999938 7:0.1940000057 8:0.2599999905 
10.0000000000 1:2.0000000000 2:0.5699999928 3:0.4399999976 4:0.1250000000 5:0.8650000095 6:0.3675000072 7:0.1724999994 8:0.2700000107 
10.0000000000 1:0.0000000000 2:0.5299999714 3:0.4199999869 4:0.1650000066 5:0.8945000172 6:0.3190000057 7:0.2389999926 8:0.2450000048 
10.0000000000 1:2.0000000000 2:0.4600000083 3:0.3799999952 4:0.1299999952 5:0.6389999986 6:0.3000000119 7:0.1525000036 8:0.1599999964 
10.0000000000 1:0.0000000000 2:0.5199999809 3:0.4499999881 4:0.1500000060 5:0.8949999809 6:0.3614999950 7:0.1860000044 8:0.2349999994 
-10.0000000000 1:0.0000000000 2:0.3499999940 3:0.2750000060 4:0.1099999994 5:0.2924999893 6:0.1225000024 7:0.0635000020 8:0.0904999971 
-10.0000000000 1:0.0000000000 2:0.4699999988 3:0.3899999857 4:0.1500000060 5:0.6355000138 6:0.2185000032 7:0.0885000005 8:0.2549999952 
10.0000000000 1:2.0000000000 2:0.4499999881 3:0.3600000143 4:0.1250000000 5:0.4995000064 6:0.2035000026 7:0.1000000015 8:0.1700000018 
10.0000000000 1:0.0000000000 2:0.5899999738 3:0.5000000000 4:0.2000000030 5:1.1870000362 6:0.4120000005 7:0.2705000043 8:0.3700000048 
10.0000000000 1:0.0000000000 2:0.6200000048 3:0.4850000143 4:0.2049999982 5:1.2189999819 6:0.3874999881 7:0.2504999936 8:0.3849999905 
10.0000000000 1:0.0000000000 2:0.6299999952 3:0.5149999857 4:0.1550000012 5:1.2589999437 6:0.4104999900 7:0.1969999969 8:0.4099999964 
10.0000000000 1:2.0000000000 2:0.5149999857 3:0.4250000119 4:0.1350000054 5:0.7120000124 6:0.2664999962 7:0.1605000049 8:0.2500000000 
10.0000000000 1:2.0000000000 2:0.5350000262 3:0.4149999917 4:0.1850000024 5:0.8414999843 6:0.3140000105 7:0.1585000008 8:0.3000000119 
-10.0000000000 1:2.0000000000 2:0.4550000131 3:0.3549999893 4:0.1199999973 5:0.4494999945 6:0.1770000011 7:0.1040000021 8:0.1500000060 
10.0000000000 1:0.0000000000 2:0.4850000143 3:0.3950000107 4:0.1400000006 5:0.6294999719 6:0.2284999937 7:0.1270000041 8:0.2249999940 
10.0000000000 1:0.0000000000 2:0.5149999857 3:0.3799999952 4:0.1749999970 5:0.9564999938 6:0.3249999881 7:0.1580000073 8:0.3100000024 
10.0000000000 1:2.0000000000 2:0.5350000262 3:0.4149999917 4:0.1700000018 5:0.8790000081 6:0.2949999869 7:0.1965000033 8:0.2849999964 
10.0000000000 1:0.0000000000 2:0.5299999714 3:0.4350000024 4:0.1550000012 5:0.6990000010 6:0.2879999876 7:0.1595000029 8:0.2049999982 
10.0000000000 1:2.0000000000 2:0.4950000048 3:0.4000000060 4:0.1550000012 5:0.6445000172 6:0.2419999987 7:0.1324999928 8:0.2049999982 
-10.0000000000 1:0.0000000000 2:0.4399999976 3:0.3549999893 4:0.1250000000 5:0.4774999917 6:0.1319999993 7:0.0815000013 8:0.1899999976 
10.0000000000 1:2.0000000000 2:0.5350000262 3:0.4350000024 4:0.1599999964 5:0.8105000257 6:0.3154999912 7:0.1794999987 8:0.2399999946 
10.0000000000 1:0.0000000000 2:0.5400000215 3:0.4350000024 4:0.1800000072 5:0.9959999919 6:0.3835000098 7:0.2259999961 8:0.3249999881 
10.0000000000 1:2.0000000000 2:0.5649999976 3:0.5049999952 4:0.2099999934 5:1.2764999866 6:0.5009999871 7:0.2790000141 8:0.3549999893 
10.0000000000 1:0.0000000000 2:0.6100000143 3:0.4749999940 4:0.1650000066 5:1.1160000563 6:0.4280000031 7:0.2205000073 8:0.3149999976 
10.0000000000 1:2.0000000000 2:0.5649999976 3:0.4550000131 4:0.1749999970 5:1.0130000114 6:0.3420000076 7:0.2070000023 8:0.3499999940 
10.0000000000 1:0.0000000000 2:0.6000000238 3:0.4950000048 4:0.1949999928 5:1.0575000048 6:0.3840000033 7:0.1899999976 8:0.3750000000 
10.0000000000 1:0.0000000000 2:0.4900000095 3:0.3950000107 4:0.1400000006 5:0.5490000248 6:0.2214999944 7:0.1274999976 8:0.1500000060 
-10.0000000000 1:2.0000000000 2:0.4050000012 3:0.3050000072 4:0.0949999988 5:0.3485000134 6:0.1455000043 7:0.0895000026 8:0.1000000015 
10.0000000000 1:2.0000000000 2:0.5400000215 3:0.4350000024 4:0.1749999970 5:0.8920000196 6:0.3219999969 7:0.1739999950 8:0.3350000083 
10.0000000000 1:2.0000000000 2:0.4699999988 3:0.3600000143 4:0.1299999952 5:0.4720000029 6:0.1819999963 7:0.1140000001 8:0.1500000060 
10.0000000000 1:0.0000000000 2:0.5500000119 3:0.4099999964 4:0.1250000000 5:0.7605000138 6:0.2504999936 7:0.1634999961 8:0.1949999928 
10.0000000000 1:0.0000000000 2:0.5699999928 3:0.4350000024 4:0.1449999958 5:0.9054999948 6:0.3925000131 7:0.2354999930 8:0.2750000060 
10.0000000000 1:2.0000000000 2:0.6299999952 3:0.4850000143 4:0.1899999976 5:1.2434999943 6:0.4634999931 7:0.3055000007 8:0.3899999857 
10.0000000000 1:0.0000000000 2:0.5600000024 3:0.4399999976 4:0.1400000006 5:0.9710000157 6:0.4429999888 7:0.2045000046 8:0.2649999857 
10.0000000000 1:0.0000000000 2:0.5950000286 3:0.4550000131 4:0.1949999928 5:1.3305000067 6:0.4595000148 7:0.3235000074 8:0.3449999988 
10.0000000000 1:2.0000000000 2:0.6200000048 3:0.4699999988 4:0.2000000030 5:1.2254999876 6:0.3810000122 7:0.2700000107 8:0.4350000024 
10.0000000000 1:0.0000000000 2:0.6299999952 3:0.4850000143 4:0.1749999970 5:1.2999999523 6:0.4334999919 7:0.2944999933 8:0.4600000083 
-10.0000000000 1:1.0000000000 2:0.4499999881 3:0.3549999893 4:0.1099999994 5:0.4584999979 6:0.1940000057 7:0.0670000017 8:0.1400000006 
10.0000000000 1:2.0000000000 2:0.6349999905 3:0.5350000262 4:0.1899999976 5:1.2419999838 6:0.5759999752 7:0.2475000024 8:0.3899999857 
10.0000000000 1:0.0000000000 2:0.4499999881 3:0.3499999940 4:0.1000000015 5:0.3675000072 6:0.1465000063 7:0.1014999971 8:0.1199999973 
10.0000000000 1:2.0000000000 2:0.5799999833 3:0.4550000131 4:0.1550000012 5:0.8364999890 6:0.3149999976 7:0.1385000050 8:0.3199999928 
10.0000000000 1:0.0000000000 2:0.3849999905 3:0.3100000024 4:0.1000000015 5:0.2845000029 6:0.1064999998 7:0.0750000030 8:0.1000000015 
10.0000000000 1:0.0000000000 2:0.5099999905 3:0.4000000060 4:0.1299999952 5:0.6434999704 6:0.2700000107 7:0.1665000021 8:0.2049999982 
10.0000000000 1:0.0000000000 2:0.5000000000 3:0.3799999952 4:0.1550000012 5:0.5954999924 6:0.2134999931 7:0.1609999985 8:0.2000000030 
-10.0000000000 1:2.0000000000 2:0.4000000060 3:0.3249999881 4:0.1199999973 5:0.3185000122 6:0.1340000033 7:0.0564999990 8:0.0949999988 
10.0000000000 1:0.0000000000 2:0.6200000048 3:0.4650000036 4:0.1899999976 5:1.3415000439 6:0.5705000162 7:0.3174999952 8:0.3549999893 
10.0000000000 1:0.0000000000 2:0.6000000238 3:0.4749999940 4:0.1899999976 5:1.0874999762 6:0.4029999971 7:0.2655000091 8:0.3249999881 
10.0000000000 1:0.0000000000 2:0.5899999738 3:0.4499999881 4:0.1850000024 5:1.2829999924 6:0.4729999900 7:0.2759999931 8:0.4250000119 
10.0000000000 1:0.0000000000 2:0.6200000048 3:0.4749999940 4:0.1850000024 5:1.3250000477 6:0.6044999957 7:0.3249999881 8:0.3300000131 
10.0000000000 1:2.0000000000 2:0.5649999976 3:0.4499999881 4:0.1949999928 5:1.0034999847 6:0.4059999883 7:0.2504999936 8:0.2849999964 
10.0000000000 1:0.0000000000 2:0.5749999881 3:0.4550000131 4:0.1449999958 5:1.1649999619 6:0.5809999704 7:0.2275000066 8:0.3000000119 
10.0000000000 1:2.0000000000 2:0.6200000048 3:0.5099999905 4:0.2049999982 5:1.3474999666 6:0.4774999917 7:0.2565000057 8:0.4799999893 
10.0000000000 1:0.0000000000 2:0.6200000048 3:0.4650000036 4:0.1850000024 5:1.2740000486 6:0.5789999962 7:0.3064999878 8:0.3199999928 
10.0000000000 1:2.0000000000 2:0.5049999952 3:0.3750000000 4:0.1800000072 5:0.5680000186 6:0.2325000018 7:0.1494999975 8:0.1700000018 
-10.0000000000 1:2.0000000000 2:0.4600000083 3:0.4250000119 4:0.1550000012 5:0.7459999919 6:0.3005000055 7:0.1519999951 8:0.2399999946 
10.0000000000 1:0.0000000000 2:0.4900000095 3:0.3899999857 4:0.1400000006 5:0.7070000172 6:0.2795000076 7:0.2185000032 8:0.1800000072 
-10.0000000000 1:2.0000000000 2:0.5249999762 3:0.4199999869 4:0.1599999964 5:0.7559999824 6:0.2745000124 7:0.1729999930 8:0.2750000060 
-10.0000000000 1:1.0000000000 2:0.3750000000 3:0.3050000072 4:0.1150000021 5:0.2714999914 6:0.0920000002 7:0.0740000010 8:0.0900000036 
10.0000000000 1:0.0000000000 2:0.6100000143 3:0.4799999893 4:0.1500000060 5:1.2000000477 6:0.5600000024 7:0.2454999983 8:0.2800000012 
-10.0000000000 1:2.0000000000 2:0.6100000143 3:0.4950000048 4:0.1850000024 5:1.1529999971 6:0.5360000134 7:0.2904999852 8:0.2450000048 
10.0000000000 1:2.0000000000 2:0.5849999785 3:0.4499999881 4:0.1700000018 5:0.8684999943 6:0.3325000107 7:0.1634999961 8:0.2700000107 
10.0000000000 1:0.0000000000 2:0.5699999928 3:0.4600000083 4:0.1400000006 5:0.9534999728 6:0.4465000033 7:0.2064999938 8:0.2450000048 
-10.0000000000 1:0.0000000000 2:0.5799999833 3:0.4550000131 4:0.1700000018 5:0.9300000072 6:0.4079999924 7:0.2590000033 8:0.2199999988 
10.0000000000 1:0.0000000000 2:0.6349999905 3:0.5149999857 4:0.1700000018 5:1.2749999762 6:0.5090000033 7:0.2860000134 8:0.3400000036 
10.0000000000 1:0.0000000000 2:0.6050000191 3:0.4900000095 4:0.1800000072 5:1.2269999981 6:0.4799999893 7:0.2870000005 8:0.3499999940 
10.0000000000 1:2.0000000000 2:0.5899999738 3:0.4650000036 4:0.1500000060 5:0.9969999790 6:0.3919999897 7:0.2460000068 8:0.3400000036 
10.0000000000 1:2.0000000000 2:0.6000000238 3:0.4799999893 4:0.1500000060 5:1.0290000439 6:0.4084999859 7:0.2705000043 8:0.2949999869 
10.0000000000 1:2.0000000000 2:0.6200000048 3:0.5000000000 4:0.1749999970 5:1.1859999895 6:0.4984999895 7:0.3014999926 8:0.3499999940 
10.0000000000 1:0.0000000000 2:0.6299999952 3:0.5149999857 4:0.1599999964 5:1.0160000324 6:0.4214999974 7:0.2440000027 8:0.3549999893 
10.0000000000 1:0.0000000000 2:0.5799999833 3:0.4650000036 4:0.1449999958 5:0.8870000243 6:0.4404999912 7:0.1655000001 8:0.2649999857 
10.0000000000 1:2.0000000000 2:0.5799999833 3:0.4550000131 4:0.1199999973 5:1.0735000372 6:0.4790000021 7:0.2734999955 8:0.2649999857 
10.0000000000 1:0.0000000000 2:0.6299999952 3:0.4900000095 4:0.1800000072 5:1.1299999952 6:0.4580000043 7:0.2764999866 8:0.3149999976 
10.0000000000 1:2.0000000000 2:0.6999999881 3:0.5749999881 4:0.1700000018 5:1.3099999428 6:0.5095000267 7:0.3140000105 8:0.4199999869 
10.0000000000 1:0.0000000000 2:0.6850000024 3:0.5199999809 4:0.1500000060 5:1.3430000544 6:0.4634999931 7:0.2919999957 8:0.4000000060 
10.0000000000 1:0.0000000000 2:0.6299999952 3:0.4900000095 4:0.1899999976 5:1.1775000095 6:0.4934999943 7:0.3364999890 8:0.2849999964 
10.0000000000 1:2.0000000000 2:0.5849999785 3:0.4499999881 4:0.1599999964 5:1.0770000219 6:0.4995000064 7:0.2874999940 8:0.2500000000 
10.0000000000 1:0.0000000000 2:0.5649999976 3:0.4650000036 4:0.1749999970 5:0.9950000048 6:0.3894999921 7:0.1829999983 8:0.3700000048 
10.0000000000 1:2.0000000000 2:0.6100000143 3:0.4950000048 4:0.1850000024 5:1.1085000038 6:0.3704999983 7:0.3134999871 8:0.3300000131 
10.0000000000 1:0.0000000000 2:0.6050000191 3:0.4699999988 4:0.1800000072 5:1.1404999495 6:0.3754999936 7:0.2804999948 8:0.3849999905 
10.0000000000 1:0.0000000000 2:0.5350000262 3:0.4199999869 4:0.1449999958 5:0.7910000086 6:0.3300000131 7:0.1889999956 8:0.2500000000 
10.0000000000 1:0.0000000000 2:0.4850000143 3:0.4000000060 4:0.1350000054 5:0.6629999876 6:0.3129999936 7:0.1369999945 8:0.2000000030 
10.0000000000 1:0.0000000000 2:0.4699999988 3:0.3750000000 4:0.1199999973 5:0.5565000176 6:0.2259999961 7:0.1220000014 8:0.1949999928 
10.0000000000 1:0.0000000000 2:0.5450000167 3:0.4250000119 4:0.1350000054 5:0.8445000052 6:0.3729999959 7:0.2099999934 8:0.2349999994 
-10.0000000000 1:2.0000000000 2:0.4550000131 3:0.3700000048 4:0.1049999967 5:0.4925000072 6:0.2160000056 7:0.1244999990 8:0.1350000054 
10.0000000000 1:0.0000000000 2:0.5400000215 3:0.4199999869 4:0.1550000012 5:0.7384999990 6:0.3515000045 7:0.1519999951 8:0.2150000036 
10.0000000000 1:0.0000000000 2:0.4600000083 3:0.3799999952 4:0.1350000054 5:0.4819999933 6:0.2070000023 7:0.1225000024 8:0.1449999958 
10.0000000000 1:0.0000000000 2:0.4900000095 3:0.4199999869 4:0.1250000000 5:0.6090000272 6:0.2389999926 7:0.1435000002 8:0.2199999988 
-10.0000000000 1:1.0000000000 2:0.4650000036 3:0.3750000000 4:0.1199999973 5:0.4709999859 6:0.2220000029 7:0.1190000027 8:0.1400000006 
10.0000000000 1:1.0000000000 2:0.4149999917 3:0.3249999881 4:0.1000000015 5:0.3215000033 6:0.1535000056 7:0.0595000014 8:0.1049999967 
10.0000000000 1:0.0000000000 2:0.4749999940 3:0.3750000000 4:0.1250000000 5:0.5929999948 6:0.2770000100 7:0.1150000021 8:0.1800000072 
10.0000000000 1:2.0000000000 2:0.4699999988 3:0.3750000000 4:0.1250000000 5:0.5615000129 6:0.2520000041 7:0.1369999945 8:0.1800000072 
10.0000000000 1:1.0000000000 2:0.3899999857 3:0.3100000024 4:0.1000000015 5:0.3019999862 6:0.1159999967 7:0.0640000030 8:0.1150000021 
10.0000000000 1:2.0000000000 2:0.5000000000 3:0.3950000107 4:0.1400000006 5:0.7154999971 6:0.3165000081 7:0.1759999990 8:0.2399999946 
-10.0000000000 1:0.0000000000 2:0.4699999988 3:0.3799999952 4:0.1449999958 5:0.5864999890 6:0.2384999990 7:0.1439999938 8:0.1850000024 
10.0000000000 1:0.0000000000 2:0.5350000262 3:0.4399999976 4:0.1500000060 5:0.6765000224 6:0.2560000122 7:0.1389999986 8:0.2599999905 
10.0000000000 1:0.0000000000 2:0.5849999785 3:0.4550000131 4:0.1500000060 5:0.9869999886 6:0.4354999959 7:0.2074999958 8:0.3100000024 
-10.0000000000 1:2.0000000000 2:0.4850000143 3:0.3650000095 4:0.1199999973 5:0.5885000229 6:0.2700000107 7:0.1309999973 8:0.1749999970 
-10.0000000000 1:0.0000000000 2:0.5149999857 3:0.4550000131 4:0.1350000054 5:0.7225000262 6:0.2949999869 7:0.1624999940 8:0.2349999994 
-10.0000000000 1:2.0000000000 2:0.4350000024 3:0.3249999881 4:0.1099999994 5:0.4334999919 6:0.1780000031 7:0.0984999985 8:0.1550000012 
10.0000000000 1:2.0000000000 2:0.5149999857 3:0.4149999917 4:0.1400000006 5:0.6934999824 6:0.3115000129 7:0.1519999951 8:0.2000000030 
-10.0000000000 1:1.0000000000 2:0.4399999976 3:0.3449999988 4:0.1199999973 5:0.3650000095 6:0.1655000001 7:0.0829999968 8:0.1099999994 
10.0000000000 1:2.0000000000 2:0.5249999762 3:0.4399999976 4:0.1500000060 5:0.8424999714 6:0.3684999943 7:0.1985000074 8:0.2399999946 
-10.0000000000 1:0.0000000000 2:0.4499999881 3:0.3549999893 4:0.1150000021 5:0.4790000021 6:0.2125000060 7:0.1045000032 8:0.1500000060 
10.0000000000 1:0.0000000000 2:0.5899999738 3:0.4850000143 4:0.1199999973 5:0.9110000134 6:0.3899999857 7:0.1819999963 8:0.2899999917 
10.0000000000 1:0.0000000000 2:0.5550000072 3:0.4499999881 4:0.1449999958 5:0.9150000215 6:0.4000000060 7:0.2460000068 8:0.2849999964 
-10.0000000000 1:0.0000000000 2:0.5699999928 3:0.4399999976 4:0.0949999988 5:0.8270000219 6:0.3395000100 7:0.2214999944 8:0.2349999994 
10.0000000000 1:0.0000000000 2:0.5899999738 3:0.5000000000 4:0.1650000066 5:1.1045000553 6:0.4564999938 7:0.2425000072 8:0.3400000036 
10.0000000000 1:0.0000000000 2:0.5849999785 3:0.4749999940 4:0.1199999973 5:0.9449999928 6:0.4099999964 7:0.2115000039 8:0.2800000012 
10.0000000000 1:2.0000000000 2:0.5799999833 3:0.4600000083 4:0.1199999973 5:0.9934999943 6:0.4625000060 7:0.2384999990 8:0.2800000012 
10.0000000000 1:0.0000000000 2:0.5450000167 3:0.4399999976 4:0.1199999973 5:0.8565000296 6:0.3474999964 7:0.1714999974 8:0.2399999946 
10.0000000000 1:2.0000000000 2:0.6050000191 3:0.4950000048 4:0.1700000018 5:1.2384999990 6:0.5279999971 7:0.2465000004 8:0.3899999857 
10.0000000000 1:2.0000000000 2:0.6200000048 3:0.4699999988 4:0.1400000006 5:1.0325000286 6:0.3605000079 7:0.2240000069 8:0.3600000143 
10.0000000000 1:2.0000000000 2:0.6299999952 3:0.5000000000 4:0.1700000018 5:1.3135000467 6:0.5594999790 7:0.2669999897 8:0.4000000060 
10.0000000000 1:0.0000000000 2:0.6299999952 3:0.5149999857 4:0.1650000066 5:1.3519999981 6:0.4880000055 7:0.3490000069 8:0.4499999881 
10.0000000000 1:2.0000000000 2:0.6299999952 3:0.5000000000 4:0.1550000012 5:1.0049999952 6:0.3670000136 7:0.1990000010 8:0.3600000143 
10.0000000000 1:0.0000000000 2:0.5450000167 3:0.4099999964 4:0.1400000006 5:0.6250000000 6:0.2230000049 7:0.1599999964 8:0.2349999994 
10.0000000000 1:1.0000000000 2:0.4900000095 3:0.3799999952 4:0.1199999973 5:0.5289999843 6:0.2164999992 7:0.1389999986 8:0.1550000012 
10.0000000000 1:2.0000000000 2:0.4900000095 3:0.3899999857 4:0.1350000054 5:0.5784999728 6:0.2465000004 7:0.1230000034 8:0.2000000030 
10.0000000000 1:0.0000000000 2:0.5799999833 3:0.4499999881 4:0.1749999970 5:1.0679999590 6:0.4250000119 7:0.2029999942 8:0.3199999928 
10.0000000000 1:2.0000000000 2:0.6100000143 3:0.4850000143 4:0.1650000066 5:1.0915000439 6:0.3935000002 7:0.2434999943 8:0.3300000131 
10.0000000000 1:0.0000000000 2:0.6000000238 3:0.5000000000 4:0.1599999964 5:1.0149999857 6:0.3995000124 7:0.1735000014 8:0.3300000131 
10.0000000000 1:2.0000000000 2:0.5600000024 3:0.4550000131 4:0.1250000000 5:0.9430000186 6:0.3440000117 7:0.1289999932 8:0.3750000000 
10.0000000000 1:2.0000000000 2:0.5749999881 3:0.4499999881 4:0.1700000018 5:1.0475000143 6:0.3774999976 7:0.1704999954 8:0.3849999905 
10.0000000000 1:2.0000000000 2:0.5699999928 3:0.4499999881 4:0.1749999970 5:0.9555000067 6:0.3799999952 7:0.1665000021 8:0.2949999869 
10.0000000000 1:0.0000000000 2:0.6000000238 3:0.4699999988 4:0.1550000012 5:1.0360000134 6:0.4375000000 7:0.1959999949 8:0.3249999881 
10.0000000000 1:0.0000000000 2:0.5649999976 3:0.4550000131 4:0.1700000018 5:0.9064999819 6:0.3420000076 7:0.1560000032 8:0.3199999928 
10.0000000000 1:0.0000000000 2:0.5450000167 3:0.4199999869 4:0.1400000006 5:0.7505000234 6:0.2475000024 7:0.1299999952 8:0.2549999952 
10.0000000000 1:1.0000000000 2:0.4399999976 3:0.3449999988 4:0.1000000015 5:0.3659999967 6:0.1220000014 7:0.0904999971 8:0.1199999973 
10.0000000000 1:0.0000000000 2:0.5000000000 3:0.4099999964 4:0.1500000060 5:0.6620000005 6:0.2815000117 7:0.1369999945 8:0.2199999988 
10.0000000000 1:1.0000000000 2:0.3849999905 3:0.3050000072 4:0.0949999988 5:0.2520000041 6:0.0914999992 7:0.0549999997 8:0.0900000036 
-10.0000000000 1:0.0000000000 2:0.3899999857 3:0.3000000119 4:0.0900000036 5:0.3055000007 6:0.1430000067 7:0.0644999966 8:0.0850000009 
10.0000000000 1:0.0000000000 2:0.5000000000 3:0.4149999917 4:0.1650000066 5:0.6884999871 6:0.2489999980 7:0.1379999965 8:0.2500000000 
10.0000000000 1:1.0000000000 2:0.3600000143 3:0.2750000060 4:0.1099999994 5:0.2335000038 6:0.0949999988 7:0.0524999984 8:0.0850000009 
10.0000000000 1:2.0000000000 2:0.5049999952 3:0.4250000119 4:0.1400000006 5:0.8500000238 6:0.2750000060 7:0.1624999940 8:0.2849999964 
10.0000000000 1:1.0000000000 2:0.3950000107 3:0.2949999869 4:0.1000000015 5:0.2714999914 6:0.1340000033 7:0.0324999988 8:0.0850000009 
10.0000000000 1:2.0000000000 2:0.4099999964 3:0.3249999881 4:0.1049999967 5:0.3634999990 6:0.1589999944 7:0.0769999996 8:0.1199999973 
-10.0000000000 1:2.0000000000 2:0.5600000024 3:0.4550000131 4:0.1899999976 5:0.7139999866 6:0.2829999924 7:0.1289999932 8:0.2750000060 
10.0000000000 1:0.0000000000 2:0.5649999976 3:0.4350000024 4:0.1850000024 5:0.9815000296 6:0.3289999962 7:0.1360000074 8:0.3899999857 
10.0000000000 1:0.0000000000 2:0.5649999976 3:0.4550000131 4:0.1850000024 5:0.9265000224 6:0.3540000021 7:0.1574999988 8:0.3750000000 
10.0000000000 1:0.0000000000 2:0.6050000191 3:0.5000000000 4:0.1749999970 5:1.0980000496 6:0.4765000045 7:0.2319999933 8:0.3750000000 
10.0000000000 1:2.0000000000 2:0.5649999976 3:0.4550000131 4:0.1500000060 5:0.8205000162 6:0.3650000095 7:0.1589999944 8:0.2599999905 
10.0000000000 1:2.0000000000 2:0.5649999976 3:0.4900000095 4:0.1550000012 5:0.9244999886 6:0.4050000012 7:0.2195000052 8:0.2549999952 
10.0000000000 1:2.0000000000 2:0.6449999809 3:0.5500000119 4:0.1749999970 5:1.2914999723 6:0.5699999928 7:0.3045000136 8:0.3300000131 
10.0000000000 1:0.0000000000 2:0.5749999881 3:0.4699999988 4:0.1400000006 5:0.8374999762 6:0.3485000134 7:0.1735000014 8:0.2399999946 
10.0000000000 1:2.0000000000 2:0.6399999857 3:0.5400000215 4:0.1749999970 5:1.2209999561 6:0.5099999905 7:0.2590000033 8:0.3899999857 
10.0000000000 1:1.0000000000 2:0.4149999917 3:0.3100000024 4:0.1099999994 5:0.2964999974 6:0.1230000034 7:0.0570000000 8:0.0995000005 
10.0000000000 1:2.0000000000 2:0.5249999762 3:0.4099999964 4:0.1350000054 5:0.7085000277 6:0.2930000126 7:0.1525000036 8:0.2349999994 
10.0000000000 1:0.0000000000 2:0.3799999952 3:0.2849999964 4:0.1000000015 5:0.2664999962 6:0.1150000021 7:0.0610000007 8:0.0750000030 
10.0000000000 1:2.0000000000 2:0.5849999785 3:0.4650000036 4:0.1700000018 5:0.9915000200 6:0.3865000010 7:0.2240000069 8:0.2649999857 
-10.0000000000 1:2.0000000000 2:0.5299999714 3:0.4399999976 4:0.1350000054 5:0.7835000157 6:0.3129999936 7:0.1714999974 8:0.2185000032 
10.0000000000 1:2.0000000000 2:0.5149999857 3:0.4050000012 4:0.1199999973 5:0.6460000277 6:0.2894999981 7:0.1404999942 8:0.1770000011 
-10.0000000000 1:1.0000000000 2:0.4300000072 3:0.3400000036 4:0.1199999973 5:0.3574999869 6:0.1509999931 7:0.0644999966 8:0.1045000032 
10.0000000000 1:2.0000000000 2:0.5199999809 3:0.4050000012 4:0.1199999973 5:0.6269999743 6:0.2644999921 7:0.1414999962 8:0.1809999943 
10.0000000000 1:2.0000000000 2:0.5450000167 3:0.4149999917 4:0.1599999964 5:0.7714999914 6:0.2720000148 7:0.1455000043 8:0.2764999866 
10.0000000000 1:0.0000000000 2:0.5299999714 3:0.4149999917 4:0.1749999970 5:0.7394999862 6:0.2610000074 7:0.1395000070 8:0.2644999921 
-10.0000000000 1:2.0000000000 2:0.4650000036 3:0.3499999940 4:0.1150000021 5:0.4210000038 6:0.1564999968 7:0.0909999982 8:0.1344999969 
10.0000000000 1:0.0000000000 2:0.6650000215 3:0.5400000215 4:0.1749999970 5:1.3470000029 6:0.4954999983 7:0.2540000081 8:0.4149999917 
10.0000000000 1:0.0000000000 2:0.6600000262 3:0.5450000167 4:0.1850000024 5:1.3200000525 6:0.5304999948 7:0.2635000050 8:0.4550000131 
10.0000000000 1:0.0000000000 2:0.5749999881 3:0.4000000060 4:0.1550000012 5:0.9325000048 6:0.3605000079 7:0.2444999963 8:0.3000000119 
10.0000000000 1:0.0000000000 2:0.5699999928 3:0.4650000036 4:0.1250000000 5:0.8489999771 6:0.3785000145 7:0.1764999926 8:0.2399999946 
10.0000000000 1:2.0000000000 2:0.5799999833 3:0.4600000083 4:0.1500000060 5:0.9955000281 6:0.4289999902 7:0.2119999975 8:0.2599999905 
10.0000000000 1:0.0000000000 2:0.6299999952 3:0.4799999893 4:0.1449999958 5:1.0115000010 6:0.4235000014 7:0.2370000035 8:0.3050000072 
10.0000000000 1:2.0000000000 2:0.5849999785 3:0.4650000036 4:0.1400000006 5:0.9079999924 6:0.3810000122 7:0.1615000069 8:0.3149999976 
10.0000000000 1:0.0000000000 2:0.5500000119 3:0.4499999881 4:0.1299999952 5:0.9200000167 6:0.3779999912 7:0.2384999990 8:0.2899999917 
10.0000000000 1:2.0000000000 2:0.6250000000 3:0.5149999857 4:0.1500000060 5:1.2415000200 6:0.5235000253 7:0.3064999878 8:0.3600000143 
10.0000000000 1:0.0000000000 2:0.5400000215 3:0.4199999869 4:0.1350000054 5:0.8075000048 6:0.3485000134 7:0.1794999987 8:0.2349999994 
10.0000000000 1:2.0000000000 2:0.5699999928 3:0.4550000131 4:0.1650000066 5:1.0594999790 6:0.4399999976 7:0.2195000052 8:0.2849999964 
10.0000000000 1:0.0000000000 2:0.5899999738 3:0.4550000131 4:0.1449999958 5:1.0729999542 6:0.4749999940 7:0.1899999976 8:0.2849999964 
10.0000000000 1:0.0000000000 2:0.5799999833 3:0.4600000083 4:0.1299999952 5:0.9210000038 6:0.3569999933 7:0.1809999943 8:0.2899999917 
10.0000000000 1:2.0000000000 2:0.6549999714 3:0.5099999905 4:0.1550000012 5:1.2894999981 6:0.5345000029 7:0.2854999900 8:0.4099999964 
10.0000000000 1:0.0000000000 2:0.6549999714 3:0.5299999714 4:0.1749999970 5:1.2634999752 6:0.4860000014 7:0.2635000050 8:0.4149999917 
10.0000000000 1:0.0000000000 2:0.6250000000 3:0.5000000000 4:0.1949999928 5:1.3689999580 6:0.5874999762 7:0.2185000032 8:0.3700000048 
10.0000000000 1:2.0000000000 2:0.6250000000 3:0.5000000000 4:0.1500000060 5:0.9530000091 6:0.3445000052 7:0.2234999985 8:0.3050000072 
10.0000000000 1:2.0000000000 2:0.6399999857 3:0.5199999809 4:0.1749999970 5:1.2480000257 6:0.4244999886 7:0.2594999969 8:0.4799999893 
10.0000000000 1:2.0000000000 2:0.6050000191 3:0.4850000143 4:0.1650000066 5:1.0104999542 6:0.4350000024 7:0.2090000063 8:0.3000000119 
10.0000000000 1:2.0000000000 2:0.6150000095 3:0.5249999762 4:0.1550000012 5:1.0384999514 6:0.4269999862 7:0.2314999998 8:0.3449999988 
10.0000000000 1:0.0000000000 2:0.5550000072 3:0.4499999881 4:0.1749999970 5:0.8740000129 6:0.3274999857 7:0.2020000070 8:0.3050000072 
10.0000000000 1:2.0000000000 2:0.5799999833 3:0.4399999976 4:0.1800000072 5:0.8539999723 6:0.3664999902 7:0.1634999961 8:0.2450000048 
10.0000000000 1:2.0000000000 2:0.6200000048 3:0.5199999809 4:0.2249999940 5:1.1835000515 6:0.3779999912 7:0.2700000107 8:0.3950000107 
10.0000000000 1:2.0000000000 2:0.6200000048 3:0.4699999988 4:0.2249999940 5:1.1150000095 6:0.3779999912 7:0.2144999951 8:0.3600000143 
10.0000000000 1:2.0000000000 2:0.6000000238 3:0.5049999952 4:0.1899999976 5:1.1289999485 6:0.4384999871 7:0.2560000122 8:0.3600000143 
10.0000000000 1:2.0000000000 2:0.6250000000 3:0.4850000143 4:0.1899999976 5:1.1744999886 6:0.4384999871 7:0.2304999977 8:0.4199999869 
10.0000000000 1:0.0000000000 2:0.6000000238 3:0.4699999988 4:0.1749999970 5:1.1050000191 6:0.4864999950 7:0.2469999939 8:0.3149999976 
10.0000000000 1:0.0000000000 2:0.5600000024 3:0.4600000083 4:0.2349999994 5:0.8395000100 6:0.3325000107 7:0.1570000052 8:0.3050000072 
10.0000000000 1:0.0000000000 2:0.5849999785 3:0.4550000131 4:0.2249999940 5:1.0549999475 6:0.3815000057 7:0.2210000008 8:0.3650000095 
10.0000000000 1:0.0000000000 2:0.5600000024 3:0.4350000024 4:0.1800000072 5:0.8889999986 6:0.3600000143 7:0.2039999962 8:0.2500000000 
10.0000000000 1:1.0000000000 2:0.5600000024 3:0.4449999928 4:0.1550000012 5:0.8734999895 6:0.3005000055 7:0.2090000063 8:0.2750000060 
10.0000000000 1:1.0000000000 2:0.6800000072 3:0.5299999714 4:0.1850000024 5:1.1095000505 6:0.4390000105 7:0.2450000048 8:0.3400000036 
10.0000000000 1:2.0000000000 2:0.4550000131 3:0.3499999940 4:0.1400000006 5:0.5184999704 6:0.2210000008 7:0.1264999956 8:0.1350000054 
10.0000000000 1:2.0000000000 2:0.4900000095 3:0.3799999952 4:0.1449999958 5:0.6725000143 6:0.2489999980 7:0.1809999943 8:0.2099999934 
-10.0000000000 1:0.0000000000 2:0.4000000060 3:0.2899999917 4:0.1150000021 5:0.2795000076 6:0.1115000024 7:0.0575000010 8:0.0750000030 
10.0000000000 1:2.0000000000 2:0.5699999928 3:0.4449999928 4:0.1550000012 5:0.7329999804 6:0.2820000052 7:0.1589999944 8:0.2349999994 
10.0000000000 1:2.0000000000 2:0.5699999928 3:0.4499999881 4:0.1599999964 5:0.9714999795 6:0.3964999914 7:0.2549999952 8:0.2599999905 
10.0000000000 1:1.0000000000 2:0.5299999714 3:0.4199999869 4:0.1850000024 5:0.7519999743 6:0.2989999950 7:0.1560000032 8:0.2049999982 
10.0000000000 1:2.0000000000 2:0.4600000083 3:0.3549999893 4:0.1299999952 5:0.4580000043 6:0.1920000017 7:0.1054999977 8:0.1299999952 
10.0000000000 1:1.0000000000 2:0.4699999988 3:0.3700000048 4:0.1199999973 5:0.4704999924 6:0.1844999939 7:0.1054999977 8:0.1550000012 
-10.0000000000 1:2.0000000000 2:0.4350000024 3:0.3350000083 4:0.1099999994 5:0.3799999952 6:0.1694999933 7:0.0860000029 8:0.1099999994 
10.0000000000 1:1.0000000000 2:0.4699999988 3:0.3700000048 4:0.1400000006 5:0.4984999895 6:0.2094999999 7:0.1225000024 8:0.1449999958 
10.0000000000 1:1.0000000000 2:0.4650000036 3:0.3799999952 4:0.1299999952 5:0.4539999962 6:0.1895000041 7:0.0799999982 8:0.1550000012 
10.0000000000 1:1.0000000000 2:0.5199999809 3:0.4050000012 4:0.1400000006 5:0.5774999857 6:0.2000000030 7:0.1449999958 8:0.1790000051 
10.0000000000 1:2.0000000000 2:0.3750000000 3:0.2899999917 4:0.1150000021 5:0.2705000043 6:0.0930000022 7:0.0659999996 8:0.0885000005 
10.0000000000 1:2.0000000000 2:0.5000000000 3:0.3750000000 4:0.1400000006 5:0.6039999723 6:0.2419999987 7:0.1414999962 8:0.1790000051 
10.0000000000 1:2.0000000000 2:0.4399999976 3:0.3549999893 4:0.1150000021 5:0.4149999917 6:0.1585000008 7:0.0925000012 8:0.1309999973 
10.0000000000 1:0.0000000000 2:0.4199999869 3:0.3249999881 4:0.1150000021 5:0.2885000110 6:0.1000000015 7:0.0570000000 8:0.1134999990 
-10.0000000000 1:0.0000000000 2:0.4449999928 3:0.3499999940 4:0.1150000021 5:0.3614999950 6:0.1564999968 7:0.0694999993 8:0.1169999987 
10.0000000000 1:2.0000000000 2:0.3799999952 3:0.2899999917 4:0.1049999967 5:0.2569999993 6:0.0989999995 7:0.0509999990 8:0.0850000009 
10.0000000000 1:0.0000000000 2:0.3199999928 3:0.2450000048 4:0.0750000030 5:0.1554999948 6:0.0584999993 7:0.0379999988 8:0.0489999987 
10.0000000000 1:2.0000000000 2:0.5649999976 3:0.4499999881 4:0.1599999964 5:0.7950000167 6:0.3605000079 7:0.1554999948 8:0.2300000042 
10.0000000000 1:1.0000000000 2:0.5550000072 3:0.4250000119 4:0.1800000072 5:0.8750000000 6:0.3695000112 7:0.2004999965 8:0.2549999952 
10.0000000000 1:1.0000000000 2:0.6499999762 3:0.5149999857 4:0.1599999964 5:1.1625000238 6:0.4950000048 7:0.2029999942 8:0.3300000131 
10.0000000000 1:1.0000000000 2:0.6150000095 3:0.4900000095 4:0.1550000012 5:0.9884999990 6:0.4144999981 7:0.1949999928 8:0.3449999988 
10.0000000000 1:1.0000000000 2:0.5600000024 3:0.4399999976 4:0.1650000066 5:0.8000000119 6:0.3350000083 7:0.1735000014 8:0.2500000000 
10.0000000000 1:1.0000000000 2:0.4799999893 3:0.3700000048 4:0.1199999973 5:0.5139999986 6:0.2074999958 7:0.1309999973 8:0.1550000012 
-10.0000000000 1:1.0000000000 2:0.4850000143 3:0.3899999857 4:0.1250000000 5:0.5910000205 6:0.2870000005 7:0.1410000026 8:0.1199999973 
10.0000000000 1:1.0000000000 2:0.5000000000 3:0.3849999905 4:0.1500000060 5:0.6265000105 6:0.2605000138 7:0.1665000021 8:0.1599999964 
10.0000000000 1:1.0000000000 2:0.5249999762 3:0.4050000012 4:0.1500000060 5:0.7950000167 6:0.3075000048 7:0.2049999982 8:0.2549999952 
10.0000000000 1:2.0000000000 2:0.6600000262 3:0.5000000000 4:0.1650000066 5:1.1905000210 6:0.4584999979 7:0.2980000079 8:0.3700000048 
10.0000000000 1:2.0000000000 2:0.6600000262 3:0.5299999714 4:0.1700000018 5:1.3259999752 6:0.5189999938 7:0.2624999881 8:0.4399999976 
10.0000000000 1:1.0000000000 2:0.5199999809 3:0.4000000060 4:0.1449999958 5:0.6600000262 6:0.2669999897 7:0.1054999977 8:0.2199999988 
-10.0000000000 1:2.0000000000 2:0.4399999976 3:0.3400000036 4:0.1049999967 5:0.3639999926 6:0.1480000019 7:0.0804999992 8:0.1174999997 
10.0000000000 1:1.0000000000 2:0.5149999857 3:0.4000000060 4:0.1199999973 5:0.6589999795 6:0.2705000043 7:0.1790000051 8:0.1700000018 
10.0000000000 1:2.0000000000 2:0.4749999940 3:0.3499999940 4:0.1150000021 5:0.4519999921 6:0.1714999974 7:0.0920000002 8:0.1550000012 
10.0000000000 1:2.0000000000 2:0.5450000167 3:0.4149999917 4:0.1500000060 5:0.7335000038 6:0.2795000076 7:0.1630000025 8:0.2185000032 
10.0000000000 1:2.0000000000 2:0.4699999988 3:0.3549999893 4:0.1299999952 5:0.5465000272 6:0.2004999965 7:0.1260000020 8:0.1850000024 
10.0000000000 1:0.0000000000 2:0.3499999940 3:0.2549999952 4:0.0649999976 5:0.1790000051 6:0.0705000013 7:0.0384999998 8:0.0599999987 
10.0000000000 1:1.0000000000 2:0.4850000143 3:0.3549999893 4:0.1299999952 5:0.5809999704 6:0.2450000048 7:0.1319999993 8:0.1679999977 
10.0000000000 1:1.0000000000 2:0.4350000024 3:0.3300000131 4:0.1250000000 5:0.4059999883 6:0.1685000062 7:0.1054999977 8:0.0960000008 
10.0000000000 1:2.0000000000 2:0.4099999964 3:0.3199999928 4:0.1150000021 5:0.3869999945 6:0.1650000066 7:0.1005000025 8:0.0984999985 
10.0000000000 1:1.0000000000 2:0.4499999881 3:0.3499999940 4:0.1400000006 5:0.4740000069 6:0.2099999934 7:0.1089999974 8:0.1274999976 
10.0000000000 1:1.0000000000 2:0.4499999881 3:0.3449999988 4:0.1350000054 5:0.4429999888 6:0.1975000054 7:0.0874999985 8:0.1174999997 
10.0000000000 1:2.0000000000 2:0.5899999738 3:0.4550000131 4:0.1550000012 5:1.0659999847 6:0.3819999993 7:0.2275000066 8:0.4149999917 
10.0000000000 1:2.0000000000 2:0.5699999928 3:0.4399999976 4:0.1400000006 5:0.9534999728 6:0.3785000145 7:0.2010000050 8:0.3050000072 
10.0000000000 1:1.0000000000 2:0.6100000143 3:0.4749999940 4:0.1500000060 5:0.9664999843 6:0.4144999981 7:0.2000000030 8:0.3449999988 
10.0000000000 1:2.0000000000 2:0.6100000143 3:0.4749999940 4:0.1400000006 5:1.1330000162 6:0.5274999738 7:0.2354999930 8:0.3499999940 
10.0000000000 1:1.0000000000 2:0.5600000024 3:0.4250000119 4:0.1400000006 5:0.9175000191 6:0.4004999995 7:0.1975000054 8:0.2599999905 
10.0000000000 1:2.0000000000 2:0.5849999785 3:0.4350000024 4:0.1749999970 5:0.9819999933 6:0.4054999948 7:0.2495000064 8:0.2700000107 
10.0000000000 1:1.0000000000 2:0.5799999833 3:0.4449999928 4:0.1500000060 5:0.8865000010 6:0.3829999864 7:0.2090000063 8:0.2549999952 
10.0000000000 1:2.0000000000 2:0.6250000000 3:0.4900000095 4:0.1749999970 5:1.2330000401 6:0.5565000176 7:0.2469999939 8:0.3650000095 
10.0000000000 1:1.0000000000 2:0.5500000119 3:0.4250000119 4:0.1500000060 5:0.8059999943 6:0.3759999871 7:0.1710000038 8:0.2450000048 
10.0000000000 1:1.0000000000 2:0.4600000083 3:0.3549999893 4:0.1400000006 5:0.4934999943 6:0.2160000056 7:0.1330000013 8:0.1150000021 
10.0000000000 1:2.0000000000 2:0.4099999964 3:0.3050000072 4:0.1000000015 5:0.3630000055 6:0.1735000014 7:0.0649999976 8:0.1099999994 
10.0000000000 1:1.0000000000 2:0.4950000048 3:0.3899999857 4:0.1250000000 5:0.6654999852 6:0.2840000093 7:0.1620000005 8:0.2000000030 
10.0000000000 1:1.0000000000 2:0.5199999809 3:0.4250000119 4:0.1700000018 5:0.6804999709 6:0.2800000012 7:0.1739999950 8:0.1949999928 
10.0000000000 1:2.0000000000 2:0.5500000119 3:0.4099999964 4:0.1449999958 5:0.8284999728 6:0.3095000088 7:0.1905000061 8:0.2500000000 
10.0000000000 1:0.0000000000 2:0.4499999881 3:0.3350000083 4:0.1400000006 5:0.4625000060 6:0.1640000045 7:0.0759999976 8:0.1500000060 
10.0000000000 1:2.0000000000 2:0.4050000012 3:0.3100000024 4:0.1199999973 5:0.3095000088 6:0.1379999965 7:0.0579999983 8:0.0949999988 
10.0000000000 1:1.0000000000 2:0.5099999905 3:0.4000000060 4:0.1500000060 5:0.7450000048 6:0.2865000069 7:0.1675000042 8:0.2349999994 
-10.0000000000 1:2.0000000000 2:0.3700000048 3:0.2899999917 4:0.1150000021 5:0.2500000000 6:0.1110000014 7:0.0570000000 8:0.0750000030 
10.0000000000 1:1.0000000000 2:0.5249999762 3:0.4099999964 4:0.1749999970 5:0.8740000129 6:0.3585000038 7:0.2070000023 8:0.2049999982 
10.0000000000 1:0.0000000000 2:0.5350000262 3:0.4199999869 4:0.1500000060 5:0.6995000243 6:0.2574999928 7:0.1529999971 8:0.2399999946 
10.0000000000 1:1.0000000000 2:0.5749999881 3:0.4550000131 4:0.1800000072 5:0.8525000215 6:0.3014999926 7:0.1825000048 8:0.3000000119 
-10.0000000000 1:2.0000000000 2:0.5500000119 3:0.4300000072 4:0.1400000006 5:0.7135000229 6:0.2565000057 7:0.1860000044 8:0.2249999940 
10.0000000000 1:1.0000000000 2:0.6050000191 3:0.4699999988 4:0.1400000006 5:0.9390000105 6:0.3384999931 7:0.2010000050 8:0.3199999928 
10.0000000000 1:1.0000000000 2:0.6050000191 3:0.4950000048 4:0.1449999958 5:1.0540000200 6:0.3689999878 7:0.2255000025 8:0.3600000143 
10.0000000000 1:2.0000000000 2:0.5600000024 3:0.4449999928 4:0.1949999928 5:0.9810000062 6:0.3050000072 7:0.2245000005 8:0.3350000083 
10.0000000000 1:1.0000000000 2:0.5350000262 3:0.4199999869 4:0.1449999958 5:0.9259999990 6:0.3980000019 7:0.1965000033 8:0.2500000000 
10.0000000000 1:2.0000000000 2:0.3849999905 3:0.3149999976 4:0.1099999994 5:0.2860000134 6:0.1225000024 7:0.0635000020 8:0.0834999979 
10.0000000000 1:2.0000000000 2:0.3899999857 3:0.3000000119 4:0.1000000015 5:0.2649999857 6:0.1075000018 7:0.0599999987 8:0.0864999965 
10.0000000000 1:1.0000000000 2:0.4699999988 3:0.3449999988 4:0.1150000021 5:0.4884999990 6:0.2004999965 7:0.1080000028 8:0.1659999937 
10.0000000000 1:1.0000000000 2:0.5149999857 3:0.3899999857 4:0.1400000006 5:0.5554999709 6:0.2000000030 7:0.1134999990 8:0.2234999985 
10.0000000000 1:1.0000000000 2:0.4250000119 3:0.3449999988 4:0.1250000000 5:0.4250000119 6:0.1599999964 7:0.0794999972 8:0.1539999992 
10.0000000000 1:1.0000000000 2:0.4850000143 3:0.3700000048 4:0.1299999952 5:0.4580000043 6:0.1809999943 7:0.1129999980 8:0.1360000074 
10.0000000000 1:0.0000000000 2:0.3700000048 3:0.2849999964 4:0.1000000015 5:0.2280000001 6:0.0675000027 7:0.0675000027 8:0.0810000002 
10.0000000000 1:0.0000000000 2:0.3499999940 3:0.2649999857 4:0.0900000036 5:0.1774999946 6:0.0575000010 7:0.0419999994 8:0.0680000037 
10.0000000000 1:2.0000000000 2:0.4399999976 3:0.3449999988 4:0.1700000018 5:0.4084999859 6:0.1500000060 7:0.0825000033 8:0.1515000015 
10.0000000000 1:1.0000000000 2:0.4950000048 3:0.3700000048 4:0.1250000000 5:0.4774999917 6:0.1850000024 7:0.0705000013 8:0.1689999998 
10.0000000000 1:1.0000000000 2:0.4499999881 3:0.3499999940 4:0.1449999958 5:0.5249999762 6:0.2084999979 7:0.1000000015 8:0.1655000001 
10.0000000000 1:0.0000000000 2:0.4149999917 3:0.3449999988 4:0.1350000054 5:0.3865000010 6:0.1280000061 7:0.0700000003 8:0.1480000019 
10.0000000000 1:2.0000000000 2:0.4699999988 3:0.3549999893 4:0.1400000006 5:0.4329999983 6:0.1525000036 7:0.0949999988 8:0.1519999951 
10.0000000000 1:0.0000000000 2:0.3449999988 3:0.2549999952 4:0.0799999982 5:0.1689999998 6:0.0599999987 7:0.0425000004 8:0.0540000014 
10.0000000000 1:1.0000000000 2:0.4850000143 3:0.3799999952 4:0.1400000006 5:0.6729999781 6:0.2175000012 7:0.1299999952 8:0.1949999928 
10.0000000000 1:2.0000000000 2:0.5000000000 3:0.3849999905 4:0.1150000021 5:0.6784999967 6:0.2944999933 7:0.1379999965 8:0.1949999928 
10.0000000000 1:2.0000000000 2:0.5000000000 3:0.3849999905 4:0.1049999967 5:0.4979999959 6:0.1794999987 7:0.1094999984 8:0.1700000018 
10.0000000000 1:1.0000000000 2:0.4650000036 3:0.3600000143 4:0.1049999967 5:0.4979999959 6:0.2140000015 7:0.1159999967 8:0.1400000006 
10.0000000000 1:2.0000000000 2:0.5249999762 3:0.4050000012 4:0.1599999964 5:0.6579999924 6:0.2655000091 7:0.1124999970 8:0.2249999940 
10.0000000000 1:2.0000000000 2:0.4250000119 3:0.3350000083 4:0.0949999988 5:0.3219999969 6:0.1204999983 7:0.0610000007 8:0.1250000000 
-10.0000000000 1:2.0000000000 2:0.3799999952 3:0.3050000072 4:0.0949999988 5:0.2815000117 6:0.1254999936 7:0.0524999984 8:0.0900000036 
10.0000000000 1:1.0000000000 2:0.5299999714 3:0.4149999917 4:0.1449999958 5:0.9440000057 6:0.3844999969 7:0.1850000024 8:0.2649999857 
10.0000000000 1:0.0000000000 2:0.3400000036 3:0.2649999857 4:0.0850000009 5:0.1835000068 6:0.0769999996 7:0.0460000001 8:0.0649999976 
-10.0000000000 1:1.0000000000 2:0.4749999940 3:0.3650000095 4:0.1150000021 5:0.4900000095 6:0.2230000049 7:0.1234999970 8:0.1334999949 
-10.0000000000 1:2.0000000000 2:0.4300000072 3:0.3400000036 4:0.1199999973 5:0.3910000026 6:0.1554999948 7:0.0949999988 8:0.1404999942 
10.0000000000 1:0.0000000000 2:0.4600000083 3:0.3650000095 4:0.1250000000 5:0.4670000076 6:0.1895000041 7:0.0944999978 8:0.1580000073 
-10.0000000000 1:1.0000000000 2:0.4699999988 3:0.3600000143 4:0.1299999952 5:0.5224999785 6:0.1979999989 7:0.1064999998 8:0.1650000066 
10.0000000000 1:1.0000000000 2:0.4399999976 3:0.3449999988 4:0.1199999973 5:0.4869999886 6:0.1965000033 7:0.1080000028 8:0.1599999964 
10.0000000000 1:2.0000000000 2:0.5099999905 3:0.4000000060 4:0.1299999952 5:0.5734999776 6:0.2189999968 7:0.1365000010 8:0.1949999928 
10.0000000000 1:1.0000000000 2:0.6200000048 3:0.4850000143 4:0.1800000072 5:1.1785000563 6:0.4675000012 7:0.2655000091 8:0.3899999857 
10.0000000000 1:2.0000000000 2:0.5899999738 3:0.4499999881 4:0.1599999964 5:0.8999999762 6:0.3580000103 7:0.1560000032 8:0.3149999976 
-10.0000000000 1:0.0000000000 2:0.4499999881 3:0.3400000036 4:0.1299999952 5:0.3714999855 6:0.1605000049 7:0.0794999972 8:0.1049999967 
10.0000000000 1:1.0000000000 2:0.4449999928 3:0.3300000131 4:0.1199999973 5:0.3470000029 6:0.1199999973 7:0.0839999989 8:0.1049999967 
-10.0000000000 1:0.0000000000 2:0.4799999893 3:0.3750000000 4:0.1449999958 5:0.7770000100 6:0.2160000056 7:0.1299999952 8:0.1700000018 
10.0000000000 1:1.0000000000 2:0.4600000083 3:0.3499999940 4:0.1199999973 5:0.4884999990 6:0.1930000037 7:0.1049999967 8:0.1550000012 
-10.0000000000 1:2.0000000000 2:0.4749999940 3:0.3600000143 4:0.1250000000 5:0.4469999969 6:0.1694999933 7:0.0810000002 8:0.1400000006 
10.0000000000 1:1.0000000000 2:0.4699999988 3:0.3499999940 4:0.1299999952 5:0.4659999907 6:0.1844999939 7:0.0989999995 8:0.1449999958 
10.0000000000 1:2.0000000000 2:0.3700000048 3:0.2800000012 4:0.1099999994 5:0.2304999977 6:0.0944999978 7:0.0465000011 8:0.0750000030 
10.0000000000 1:2.0000000000 2:0.5550000072 3:0.4350000024 4:0.1650000066 5:0.9700000286 6:0.3359999955 7:0.2314999998 8:0.2949999869 
10.0000000000 1:2.0000000000 2:0.6150000095 3:0.5149999857 4:0.1700000018 5:1.1399999857 6:0.4305000007 7:0.2245000005 8:0.4199999869 
10.0000000000 1:1.0000000000 2:0.5799999833 3:0.4900000095 4:0.1949999928 5:1.3164999485 6:0.5304999948 7:0.2540000081 8:0.4099999964 
10.0000000000 1:2.0000000000 2:0.5849999785 3:0.4749999940 4:0.1850000024 5:0.9585000277 6:0.4144999981 7:0.1615000069 8:0.3300000131 
10.0000000000 1:1.0000000000 2:0.5350000262 3:0.4499999881 4:0.1700000018 5:0.7810000181 6:0.3055000007 7:0.1554999948 8:0.2949999869 
10.0000000000 1:2.0000000000 2:0.4149999917 3:0.3400000036 4:0.1299999952 5:0.3675000072 6:0.1459999979 7:0.0885000005 8:0.1199999973 
10.0000000000 1:2.0000000000 2:0.3799999952 3:0.3050000072 4:0.1049999967 5:0.2809999883 6:0.1045000032 7:0.0615000017 8:0.0900000036 
10.0000000000 1:1.0000000000 2:0.4499999881 3:0.3549999893 4:0.1199999973 5:0.4120000005 6:0.1145000011 7:0.0665000007 8:0.1599999964 
10.0000000000 1:2.0000000000 2:0.3950000107 3:0.2949999869 4:0.0949999988 5:0.2245000005 6:0.0780000016 7:0.0540000014 8:0.0799999982 
10.0000000000 1:0.0000000000 2:0.4550000131 3:0.3499999940 4:0.1199999973 5:0.4835000038 6:0.1815000027 7:0.1439999938 8:0.1599999964 
10.0000000000 1:2.0000000000 2:0.4850000143 3:0.3799999952 4:0.1500000060 5:0.6050000191 6:0.2154999971 7:0.1400000006 8:0.1800000072 
10.0000000000 1:0.0000000000 2:0.5500000119 3:0.4250000119 4:0.1550000012 5:0.9175000191 6:0.2775000036 7:0.2430000007 8:0.3350000083 
10.0000000000 1:2.0000000000 2:0.4499999881 3:0.3499999940 4:0.1449999958 5:0.5425000191 6:0.1764999926 7:0.1230000034 8:0.1749999970 
10.0000000000 1:0.0000000000 2:0.4749999940 3:0.3849999905 4:0.1449999958 5:0.6175000072 6:0.2349999994 7:0.1080000028 8:0.2150000036 
10.0000000000 1:2.0000000000 2:0.5000000000 3:0.3799999952 4:0.1550000012 5:0.6549999714 6:0.2405000031 7:0.1430000067 8:0.2049999982 
10.0000000000 1:2.0000000000 2:0.5299999714 3:0.4099999964 4:0.1650000066 5:0.8115000129 6:0.2399999946 7:0.1689999998 8:0.2399999946 
10.0000000000 1:0.0000000000 2:0.4900000095 3:0.3899999857 4:0.1500000060 5:0.5730000138 6:0.2249999940 7:0.1239999980 8:0.1700000018 
10.0000000000 1:2.0000000000 2:0.4900000095 3:0.3849999905 4:0.1500000060 5:0.7864999771 6:0.2409999967 7:0.1400000006 8:0.2399999946 
10.0000000000 1:2.0000000000 2:0.5199999809 3:0.3950000107 4:0.1800000072 5:0.6399999857 6:0.1580000073 7:0.1099999994 8:0.2450000048 
10.0000000000 1:0.0000000000 2:0.5400000215 3:0.4149999917 4:0.1449999958 5:0.7400000095 6:0.2635000050 7:0.1679999977 8:0.2450000048 
10.0000000000 1:2.0000000000 2:0.5000000000 3:0.3750000000 4:0.1150000021 5:0.5945000052 6:0.1850000024 7:0.1480000019 8:0.1899999976 
10.0000000000 1:2.0000000000 2:0.4499999881 3:0.3799999952 4:0.1650000066 5:0.8165000081 6:0.2500000000 7:0.1914999932 8:0.2649999857 
10.0000000000 1:0.0000000000 2:0.4850000143 3:0.3700000048 4:0.1400000006 5:0.5724999905 6:0.2039999962 7:0.1414999962 8:0.1749999970 
-10.0000000000 1:2.0000000000 2:0.4350000024 3:0.3249999881 4:0.1150000021 5:0.3914999962 6:0.1539999992 7:0.0939999968 8:0.1199999973 
10.0000000000 1:0.0000000000 2:0.5350000262 3:0.4050000012 4:0.1850000024 5:0.8345000148 6:0.3174999952 7:0.1724999994 8:0.2899999917 
10.0000000000 1:0.0000000000 2:0.5099999905 3:0.4000000060 4:0.1400000006 5:0.6514999866 6:0.2454999983 7:0.1665000021 8:0.1850000024 
10.0000000000 1:0.0000000000 2:0.5649999976 3:0.4399999976 4:0.1850000024 5:0.9089999795 6:0.3440000117 7:0.2325000018 8:0.2549999952 
10.0000000000 1:2.0000000000 2:0.5350000262 3:0.4000000060 4:0.1500000060 5:0.8044999838 6:0.3345000148 7:0.2125000060 8:0.2099999934 
10.0000000000 1:2.0000000000 2:0.5350000262 3:0.4050000012 4:0.1250000000 5:0.9269999862 6:0.2599999905 7:0.1424999982 8:0.3449999988 
10.0000000000 1:0.0000000000 2:0.5249999762 3:0.4000000060 4:0.1700000018 5:0.7304999828 6:0.2790000141 7:0.2055000067 8:0.1949999928 
10.0000000000 1:0.0000000000 2:0.5899999738 3:0.4399999976 4:0.1500000060 5:0.9555000067 6:0.3659999967 7:0.2425000072 8:0.2949999869 
10.0000000000 1:0.0000000000 2:0.5000000000 3:0.3750000000 4:0.1500000060 5:0.6359999776 6:0.2535000145 7:0.1449999958 8:0.1899999976 
10.0000000000 1:2.0000000000 2:0.4300000072 3:0.3249999881 4:0.1150000021 5:0.3865000010 6:0.1474999934 7:0.1064999998 8:0.1099999994 
-10.0000000000 1:0.0000000000 2:0.3799999952 3:0.2899999917 4:0.1199999973 5:0.2829999924 6:0.1174999997 7:0.0654999986 8:0.0850000009 
10.0000000000 1:2.0000000000 2:0.4300000072 3:0.3350000083 4:0.1199999973 5:0.4440000057 6:0.1550000012 7:0.1145000011 8:0.1400000006 
10.0000000000 1:2.0000000000 2:0.3950000107 3:0.3149999976 4:0.1049999967 5:0.3515000045 6:0.1185000017 7:0.0909999982 8:0.1194999963 
10.0000000000 1:0.0000000000 2:0.3849999905 3:0.2849999964 4:0.1049999967 5:0.2904999852 6:0.1215000004 7:0.0684999973 8:0.0874999985 
10.0000000000 1:2.0000000000 2:0.4799999893 3:0.3849999905 4:0.1350000054 5:0.5360000134 6:0.1895000041 7:0.1420000046 8:0.1729999930 
-10.0000000000 1:2.0000000000 2:0.4449999928 3:0.3300000131 4:0.1049999967 5:0.4524999857 6:0.1800000072 7:0.1030000001 8:0.1230000034 
10.0000000000 1:0.0000000000 2:0.3950000107 3:0.2949999869 4:0.1150000021 5:0.3160000145 6:0.1204999983 7:0.0595000014 8:0.1105000004 
-10.0000000000 1:0.0000000000 2:0.4000000060 3:0.3000000119 4:0.1250000000 5:0.4169999957 6:0.1909999996 7:0.0900000036 8:0.1174999997 
10.0000000000 1:0.0000000000 2:0.4149999917 3:0.3249999881 4:0.1400000006 5:0.4169999957 6:0.1535000056 7:0.1014999971 8:0.1439999938 
10.0000000000 1:0.0000000000 2:0.3149999976 3:0.2500000000 4:0.0900000036 5:0.2029999942 6:0.0615000017 7:0.0370000005 8:0.0794999972 
10.0000000000 1:2.0000000000 2:0.3449999988 3:0.2599999905 4:0.0900000036 5:0.2070000023 6:0.0775000006 7:0.0434999987 8:0.0764999986 
10.0000000000 1:0.0000000000 2:0.3600000143 3:0.2949999869 4:0.1299999952 5:0.2764999866 6:0.0895000026 7:0.0570000000 8:0.1005000025 
10.0000000000 1:0.0000000000 2:0.3750000000 3:0.3000000119 4:0.1000000015 5:0.2465000004 6:0.1040000021 7:0.0474999994 8:0.0829999968 
10.0000000000 1:0.0000000000 2:0.5550000072 3:0.4550000131 4:0.1599999964 5:1.0575000048 6:0.3925000131 7:0.2280000001 8:0.2930000126 
10.0000000000 1:0.0000000000 2:0.5550000072 3:0.4399999976 4:0.1500000060 5:1.0920000076 6:0.4160000086 7:0.2119999975 8:0.4404999912 
10.0000000000 1:0.0000000000 2:0.5249999762 3:0.4099999964 4:0.1299999952 5:0.9900000095 6:0.3865000010 7:0.2430000007 8:0.2949999869 
10.0000000000 1:0.0000000000 2:0.4650000036 3:0.3600000143 4:0.0799999982 5:0.4880000055 6:0.1909999996 7:0.1250000000 8:0.1550000012 
10.0000000000 1:2.0000000000 2:0.4900000095 3:0.3600000143 4:0.1099999994 5:0.5005000234 6:0.1609999985 7:0.1070000008 8:0.1949999928 
10.0000000000 1:0.0000000000 2:0.4000000060 3:0.3050000072 4:0.0850000009 5:0.2969999909 6:0.1080000028 7:0.0705000013 8:0.1000000015 
10.0000000000 1:2.0000000000 2:0.4799999893 3:0.3750000000 4:0.1049999967 5:0.5249999762 6:0.2185000032 7:0.1194999963 8:0.1550000012 
10.0000000000 1:0.0000000000 2:0.5049999952 3:0.4000000060 4:0.1250000000 5:0.7699999809 6:0.2734999955 7:0.1589999944 8:0.2549999952 
10.0000000000 1:2.0000000000 2:0.5199999809 3:0.4000000060 4:0.1199999973 5:0.6514999866 6:0.2610000074 7:0.2014999986 8:0.1650000066 
10.0000000000 1:0.0000000000 2:0.5249999762 3:0.4000000060 4:0.1299999952 5:0.8295000196 6:0.2405000031 7:0.1825000048 8:0.2750000060 
10.0000000000 1:0.0000000000 2:0.5450000167 3:0.4199999869 4:0.1299999952 5:0.8790000081 6:0.3740000129 7:0.1694999933 8:0.2300000042 
10.0000000000 1:0.0000000000 2:0.5199999809 3:0.4000000060 4:0.1199999973 5:0.8230000138 6:0.2980000079 7:0.1805000007 8:0.2649999857 
10.0000000000 1:0.0000000000 2:0.5049999952 3:0.3799999952 4:0.1299999952 5:0.6560000181 6:0.2269999981 7:0.1784999967 8:0.2199999988 
10.0000000000 1:0.0000000000 2:0.5249999762 3:0.4250000119 4:0.1199999973 5:0.8665000200 6:0.2824999988 7:0.1759999990 8:0.2899999917 
10.0000000000 1:0.0000000000 2:0.5099999905 3:0.3899999857 4:0.1250000000 5:0.6564999819 6:0.2619999945 7:0.1835000068 8:0.1749999970 
10.0000000000 1:0.0000000000 2:0.5199999809 3:0.3849999905 4:0.1150000021 5:0.6690000296 6:0.2384999990 7:0.1720000058 8:0.2049999982 
10.0000000000 1:2.0000000000 2:0.5199999809 3:0.4050000012 4:0.1250000000 5:0.6434999704 6:0.2415000051 7:0.1735000014 8:0.2099999934 
10.0000000000 1:0.0000000000 2:0.5350000262 3:0.4099999964 4:0.1350000054 5:0.8619999886 6:0.2854999900 7:0.1525000036 8:0.3199999928 
10.0000000000 1:0.0000000000 2:0.4449999928 3:0.3449999988 4:0.0900000036 5:0.3795000017 6:0.1430000067 7:0.0740000010 8:0.1250000000 
10.0000000000 1:0.0000000000 2:0.5299999714 3:0.4399999976 4:0.2049999982 5:0.8349999785 6:0.3199999928 7:0.2175000012 8:0.2450000048 
10.0000000000 1:2.0000000000 2:0.5350000262 3:0.4199999869 4:0.1500000060 5:0.7365000248 6:0.2784999907 7:0.1860000044 8:0.2150000036 
10.0000000000 1:2.0000000000 2:0.5199999809 3:0.4050000012 4:0.1400000006 5:0.8174999952 6:0.2795000076 7:0.1829999983 8:0.2599999905 
10.0000000000 1:0.0000000000 2:0.5299999714 3:0.4149999917 4:0.1299999952 5:0.8424999714 6:0.2750000060 7:0.1944999993 8:0.2649999857 
10.0000000000 1:2.0000000000 2:0.5299999714 3:0.4199999869 4:0.1299999952 5:1.0010000467 6:0.3400000036 7:0.2259999961 8:0.2649999857 
-10.0000000000 1:0.0000000000 2:0.5199999809 3:0.3849999905 4:0.1400000006 5:0.6595000029 6:0.2485000044 7:0.2035000026 8:0.1599999964 
10.0000000000 1:0.0000000000 2:0.5350000262 3:0.4199999869 4:0.1299999952 5:0.8054999709 6:0.3009999990 7:0.1809999943 8:0.2800000012 
10.0000000000 1:2.0000000000 2:0.5099999905 3:0.3899999857 4:0.1049999967 5:0.6119999886 6:0.1870000064 7:0.1500000060 8:0.1949999928 
10.0000000000 1:0.0000000000 2:0.4850000143 3:0.3549999893 4:0.1199999973 5:0.5469999909 6:0.2150000036 7:0.1615000069 8:0.1400000006 
10.0000000000 1:2.0000000000 2:0.6050000191 3:0.4600000083 4:0.1700000018 5:1.1219999790 6:0.3470000029 7:0.3045000136 8:0.3149999976 
10.0000000000 1:2.0000000000 2:0.5799999833 3:0.4550000131 4:0.1650000066 5:1.1365000010 6:0.3689999878 7:0.3005000055 8:0.2750000060 
10.0000000000 1:0.0000000000 2:0.6150000095 3:0.5249999762 4:0.1550000012 5:1.1375000477 6:0.3670000136 7:0.2360000014 8:0.3700000048 
10.0000000000 1:0.0000000000 2:0.5699999928 3:0.4399999976 4:0.1550000012 5:1.1160000563 6:0.4774999917 7:0.2314999998 8:0.2700000107 
10.0000000000 1:0.0000000000 2:0.5699999928 3:0.4300000072 4:0.1199999973 5:1.0614999533 6:0.3479999900 7:0.1669999957 8:0.3100000024 
10.0000000000 1:0.0000000000 2:0.5849999785 3:0.4050000012 4:0.1500000060 5:1.2565000057 6:0.4350000024 7:0.2020000070 8:0.3249999881 
10.0000000000 1:2.0000000000 2:0.5500000119 3:0.4399999976 4:0.1550000012 5:0.9459999800 6:0.3129999936 7:0.1825000048 8:0.3350000083 
10.0000000000 1:2.0000000000 2:0.5400000215 3:0.4399999976 4:0.1350000054 5:0.9589999914 6:0.2384999990 7:0.2210000008 8:0.3000000119 
10.0000000000 1:2.0000000000 2:0.6100000143 3:0.4699999988 4:0.1449999958 5:1.1529999971 6:0.4029999971 7:0.2960000038 8:0.3199999928 
10.0000000000 1:0.0000000000 2:0.5450000167 3:0.4499999881 4:0.1500000060 5:0.9779999852 6:0.3364999890 7:0.1905000061 8:0.3000000119 
10.0000000000 1:2.0000000000 2:0.5899999738 3:0.4449999928 4:0.1299999952 5:1.1325000525 6:0.3824999928 7:0.2339999974 8:0.3199999928 
10.0000000000 1:2.0000000000 2:0.5500000119 3:0.4300000072 4:0.1550000012 5:0.7850000262 6:0.2890000045 7:0.2269999981 8:0.2329999954 
10.0000000000 1:2.0000000000 2:0.5299999714 3:0.4250000119 4:0.1700000018 5:0.9490000010 6:0.3485000134 7:0.2395000011 8:0.2779999971 
10.0000000000 1:2.0000000000 2:0.5299999714 3:0.4550000131 4:0.1650000066 5:0.9804999828 6:0.3154999912 7:0.2815000117 8:0.2964999974 
-10.0000000000 1:1.0000000000 2:0.4850000143 3:0.3750000000 4:0.1400000006 5:0.5210000277 6:0.2000000030 7:0.1230000034 8:0.1700000018 
-10.0000000000 1:0.0000000000 2:0.4550000131 3:0.3400000036 4:0.1350000054 5:0.4620000124 6:0.1675000042 7:0.1580000073 8:0.1199999973 
10.0000000000 1:0.0000000000 2:0.4900000095 3:0.3799999952 4:0.1400000006 5:0.7605000138 6:0.2450000048 7:0.1669999957 8:0.1850000024 
10.0000000000 1:0.0000000000 2:0.5299999714 3:0.4099999964 4:0.1650000066 5:0.7319999933 6:0.1889999956 7:0.1700000018 8:0.3100000024 
10.0000000000 1:0.0000000000 2:0.5049999952 3:0.3849999905 4:0.1449999958 5:0.6775000095 6:0.2360000014 7:0.1790000051 8:0.2000000030 
10.0000000000 1:0.0000000000 2:0.4900000095 3:0.3799999952 4:0.1400000006 5:0.6384999752 6:0.2304999977 7:0.1420000046 8:0.1949999928 
10.0000000000 1:0.0000000000 2:0.4650000036 3:0.3499999940 4:0.1400000006 5:0.5755000114 6:0.2014999986 7:0.1504999995 8:0.1899999976 
10.0000000000 1:2.0000000000 2:0.4699999988 3:0.3600000143 4:0.1449999958 5:0.5370000005 6:0.1724999994 7:0.1375000030 8:0.1949999928 
10.0000000000 1:0.0000000000 2:0.5600000024 3:0.4099999964 4:0.1650000066 5:0.9300000072 6:0.3504999876 7:0.2370000035 8:0.3000000119 
10.0000000000 1:0.0000000000 2:0.5049999952 3:0.3849999905 4:0.1500000060 5:0.6414999962 6:0.2460000068 7:0.1519999951 8:0.2150000036 
10.0000000000 1:0.0000000000 2:0.5149999857 3:0.4350000024 4:0.1449999958 5:0.8815000057 6:0.2919999957 7:0.2060000002 8:0.2549999952 
10.0000000000 1:0.0000000000 2:0.5500000119 3:0.4149999917 4:0.1749999970 5:1.0420000553 6:0.3294999897 7:0.2325000018 8:0.2904999852 
-10.0000000000 1:2.0000000000 2:0.5149999857 3:0.3899999857 4:0.1299999952 5:0.5755000114 6:0.1975000054 7:0.1299999952 8:0.1844999939 
10.0000000000 1:0.0000000000 2:0.4950000048 3:0.3849999905 4:0.1350000054 5:0.7089999914 6:0.2109999955 7:0.1375000030 8:0.2619999945 
-10.0000000000 1:2.0000000000 2:0.5049999952 3:0.3899999857 4:0.1599999964 5:0.6439999938 6:0.2475000024 7:0.2025000006 8:0.1634999961 
10.0000000000 1:2.0000000000 2:0.6000000238 3:0.4650000036 4:0.1650000066 5:0.8874999881 6:0.3089999855 7:0.2460000068 8:0.2619999945 
10.0000000000 1:2.0000000000 2:0.5699999928 3:0.4650000036 4:0.1599999964 5:0.8934999704 6:0.3145000041 7:0.2574999928 8:0.2630000114 
10.0000000000 1:2.0000000000 2:0.4850000143 3:0.3750000000 4:0.1350000054 5:0.5559999943 6:0.1924999952 7:0.1315000057 8:0.1685000062 
-10.0000000000 1:0.0000000000 2:0.4699999988 3:0.3700000048 4:0.1800000072 5:0.5099999905 6:0.1914999932 7:0.1284999996 8:0.1624999940 
10.0000000000 1:0.0000000000 2:0.5749999881 3:0.4499999881 4:0.1650000066 5:0.9215000272 6:0.3274999857 7:0.2249999940 8:0.2560000122 
10.0000000000 1:0.0000000000 2:0.5799999833 3:0.4650000036 4:0.1599999964 5:1.0345000029 6:0.3149999976 7:0.2599999905 8:0.3634999990 
10.0000000000 1:0.0000000000 2:0.5149999857 3:0.4050000012 4:0.1449999958 5:0.6949999928 6:0.2150000036 7:0.1634999961 8:0.2339999974 
10.0000000000 1:0.0000000000 2:0.5299999714 3:0.4099999964 4:0.1550000012 5:0.7154999971 6:0.2804999948 7:0.1685000062 8:0.2140000015 
-10.0000000000 1:0.0000000000 2:0.4399999976 3:0.3350000083 4:0.1099999994 5:0.3939999938 6:0.1570000052 7:0.0960000008 8:0.1220000014 
10.0000000000 1:0.0000000000 2:0.5199999809 3:0.4199999869 4:0.1599999964 5:0.7450000048 6:0.2549999952 7:0.1570000052 8:0.2885000110 
10.0000000000 1:2.0000000000 2:0.4250000119 3:0.3449999988 4:0.1099999994 5:0.3664999902 6:0.1250000000 7:0.0810000002 8:0.1169999987 
10.0000000000 1:0.0000000000 2:0.4600000083 3:0.3400000036 4:0.1350000054 5:0.4950000048 6:0.1655000001 7:0.1169999987 8:0.1850000024 
10.0000000000 1:0.0000000000 2:0.4499999881 3:0.3350000083 4:0.1250000000 5:0.3490000069 6:0.1190000027 7:0.1054999977 8:0.1150000021 
-10.0000000000 1:0.0000000000 2:0.4250000119 3:0.3300000131 4:0.1299999952 5:0.4404999912 6:0.1519999951 7:0.0935000032 8:0.1550000012 
10.0000000000 1:0.0000000000 2:0.5149999857 3:0.3799999952 4:0.1350000054 5:0.6614999771 6:0.2874999940 7:0.2094999999 8:0.1550000012 
-10.0000000000 1:0.0000000000 2:0.4050000012 3:0.3050000072 4:0.1199999973 5:0.3185000122 6:0.1234999970 7:0.0904999971 8:0.0949999988 
10.0000000000 1:2.0000000000 2:0.4799999893 3:0.4000000060 4:0.1250000000 5:0.7590000033 6:0.2125000060 7:0.1790000051 8:0.2399999946 
10.0000000000 1:2.0000000000 2:0.4399999976 3:0.3400000036 4:0.1299999952 5:0.4194999933 6:0.1529999971 7:0.1155000031 8:0.1299999952 
10.0000000000 1:2.0000000000 2:0.5199999809 3:0.4099999964 4:0.1150000021 5:0.8069999814 6:0.2854999900 7:0.1790000051 8:0.2349999994 
10.0000000000 1:0.0000000000 2:0.5049999952 3:0.4050000012 4:0.1400000006 5:0.8750000000 6:0.2664999962 7:0.1739999950 8:0.2849999964 
10.0000000000 1:2.0000000000 2:0.4900000095 3:0.3650000095 4:0.1299999952 5:0.6834999919 6:0.1650000066 7:0.1315000057 8:0.2049999982 
-10.0000000000 1:1.0000000000 2:0.3600000143 3:0.3000000119 4:0.0850000009 5:0.2700000107 6:0.1185000017 7:0.0640000030 8:0.0745000020 
-10.0000000000 1:1.0000000000 2:0.3849999905 3:0.2899999917 4:0.0949999988 5:0.3120000064 6:0.1430000067 7:0.0635000020 8:0.0860000029 
-10.0000000000 1:1.0000000000 2:0.3849999905 3:0.3000000119 4:0.1000000015 5:0.2894999981 6:0.1215000004 7:0.0630000010 8:0.0900000036 
-10.0000000000 1:1.0000000000 2:0.3950000107 3:0.2899999917 4:0.0949999988 5:0.3190000057 6:0.1379999965 7:0.0799999982 8:0.0820000023 
-10.0000000000 1:1.0000000000 2:0.3950000107 3:0.2899999917 4:0.0949999988 5:0.3039999902 6:0.1270000041 7:0.0839999989 8:0.0769999996 
-10.0000000000 1:1.0000000000 2:0.4000000060 3:0.3100000024 4:0.1000000015 5:0.3059999943 6:0.1299999952 7:0.0599999987 8:0.0939999968 
-10.0000000000 1:1.0000000000 2:0.4099999964 3:0.3249999881 4:0.1000000015 5:0.3939999938 6:0.2080000043 7:0.0654999986 8:0.1059999987 
-10.0000000000 1:1.0000000000 2:0.4149999917 3:0.3199999928 4:0.1099999994 5:0.3734999895 6:0.1749999970 7:0.0754999965 8:0.1089999974 
-10.0000000000 1:0.0000000000 2:0.4149999917 3:0.3050000072 4:0.1000000015 5:0.3249999881 6:0.1560000032 7:0.0505000018 8:0.0909999982 
-10.0000000000 1:1.0000000000 2:0.4250000119 3:0.3249999881 4:0.1000000015 5:0.3980000019 6:0.1185000017 7:0.0644999966 8:0.0944999978 
-10.0000000000 1:1.0000000000 2:0.4399999976 3:0.3650000095 4:0.1150000021 5:0.5009999871 6:0.2434999943 7:0.0839999989 8:0.1465000063 
-10.0000000000 1:1.0000000000 2:0.4449999928 3:0.3350000083 4:0.1000000015 5:0.4894999862 6:0.2745000124 7:0.0860000029 8:0.1105000004 
-10.0000000000 1:1.0000000000 2:0.4449999928 3:0.3249999881 4:0.1000000015 5:0.3779999912 6:0.1794999987 7:0.1000000015 8:0.0890000015 
-10.0000000000 1:1.0000000000 2:0.4499999881 3:0.3499999940 4:0.1299999952 5:0.5469999909 6:0.2450000048 7:0.1404999942 8:0.1404999942 
-10.0000000000 1:0.0000000000 2:0.4699999988 3:0.3750000000 4:0.1199999973 5:0.5805000067 6:0.2660000026 7:0.0935000032 8:0.1689999998 
-10.0000000000 1:1.0000000000 2:0.4749999940 3:0.3650000095 4:0.1250000000 5:0.5465000272 6:0.2290000021 7:0.1185000017 8:0.1720000058 
-10.0000000000 1:2.0000000000 2:0.4799999893 3:0.3650000095 4:0.1350000054 5:0.6395000219 6:0.2944999933 7:0.1129999980 8:0.1749999970 
-10.0000000000 1:1.0000000000 2:0.4850000143 3:0.3549999893 4:0.1049999967 5:0.4979999959 6:0.2175000012 7:0.0960000008 8:0.1525000036 
-10.0000000000 1:0.0000000000 2:0.4900000095 3:0.3849999905 4:0.1250000000 5:0.6090000272 6:0.3064999878 7:0.0960000008 8:0.1774999946 
-10.0000000000 1:2.0000000000 2:0.4950000048 3:0.4099999964 4:0.1250000000 5:0.7555000186 6:0.3355000019 7:0.1289999932 8:0.2140000015 
-10.0000000000 1:0.0000000000 2:0.5000000000 3:0.4000000060 4:0.1250000000 5:0.5975000262 6:0.2700000107 7:0.1274999976 8:0.1659999937 
-10.0000000000 1:0.0000000000 2:0.5049999952 3:0.4399999976 4:0.1400000006 5:0.8274999857 6:0.3415000141 7:0.1854999959 8:0.2389999926 
-10.0000000000 1:0.0000000000 2:0.5249999762 3:0.3950000107 4:0.1299999952 5:0.7634999752 6:0.3375000060 7:0.1424999982 8:0.2249999940 
-10.0000000000 1:0.0000000000 2:0.5400000215 3:0.4050000012 4:0.1250000000 5:0.8909999728 6:0.4814999998 7:0.1914999932 8:0.2020000070 
10.0000000000 1:2.0000000000 2:0.5400000215 3:0.4199999869 4:0.1400000006 5:0.8050000072 6:0.3689999878 7:0.1724999994 8:0.2099999934 
10.0000000000 1:2.0000000000 2:0.5450000167 3:0.4399999976 4:0.1350000054 5:0.9185000062 6:0.4289999902 7:0.2014999986 8:0.2374999970 
-10.0000000000 1:2.0000000000 2:0.5500000119 3:0.4300000072 4:0.1250000000 5:0.9229999781 6:0.4034999907 7:0.1749999970 8:0.2829999924 
10.0000000000 1:0.0000000000 2:0.5500000119 3:0.4499999881 4:0.1500000060 5:1.0145000219 6:0.4070000052 7:0.2014999986 8:0.2874999940 
10.0000000000 1:2.0000000000 2:0.5500000119 3:0.4499999881 4:0.1500000060 5:0.8750000000 6:0.3619999886 7:0.1755000055 8:0.2764999866 
-10.0000000000 1:0.0000000000 2:0.5550000072 3:0.4350000024 4:0.1449999958 5:0.9685000181 6:0.4984999895 7:0.1679999977 8:0.2384999990 
10.0000000000 1:0.0000000000 2:0.5649999976 3:0.4499999881 4:0.1550000012 5:1.0594999790 6:0.4735000134 7:0.2399999946 8:0.2649999857 
-10.0000000000 1:0.0000000000 2:0.5699999928 3:0.4550000131 4:0.1500000060 5:0.9520000219 6:0.3894999921 7:0.2154999971 8:0.2745000124 
10.0000000000 1:0.0000000000 2:0.5699999928 3:0.4350000024 4:0.1299999952 5:0.7534999847 6:0.3490000069 7:0.1755000055 8:0.1940000057 
-10.0000000000 1:2.0000000000 2:0.5749999881 3:0.4650000036 4:0.1400000006 5:0.9580000043 6:0.4420000017 7:0.1815000027 8:0.2705000043 
-10.0000000000 1:0.0000000000 2:0.5899999738 3:0.4749999940 4:0.1650000066 5:1.0770000219 6:0.4544999897 7:0.2440000027 8:0.3095000088 
10.0000000000 1:0.0000000000 2:0.5899999738 3:0.4600000083 4:0.1299999952 5:1.1019999981 6:0.4550000131 7:0.2055000067 8:0.3300000131 
10.0000000000 1:2.0000000000 2:0.5950000286 3:0.4799999893 4:0.1500000060 5:1.1100000143 6:0.4979999959 7:0.2280000001 8:0.3300000131 
-10.0000000000 1:2.0000000000 2:0.5950000286 3:0.4799999893 4:0.1599999964 5:1.2094999552 6:0.5224999785 7:0.2960000038 8:0.3199999928 
-10.0000000000 1:2.0000000000 2:0.5950000286 3:0.4749999940 4:0.1599999964 5:1.1404999495 6:0.5469999909 7:0.2310000062 8:0.2709999979 
10.0000000000 1:2.0000000000 2:0.5950000286 3:0.4650000036 4:0.1400000006 5:1.1130000353 6:0.5174999833 7:0.2440000027 8:0.3050000072 
10.0000000000 1:0.0000000000 2:0.6000000238 3:0.4749999940 4:0.1749999970 5:1.3444999456 6:0.5490000248 7:0.2874999940 8:0.3600000143 
10.0000000000 1:2.0000000000 2:0.6000000238 3:0.4749999940 4:0.1550000012 5:1.2100000381 6:0.6529999971 7:0.1694999933 8:0.3204999864 
10.0000000000 1:0.0000000000 2:0.6000000238 3:0.4950000048 4:0.1749999970 5:1.2899999619 6:0.6060000062 7:0.2759999931 8:0.3445000052 
-10.0000000000 1:0.0000000000 2:0.6050000191 3:0.4550000131 4:0.1599999964 5:1.1035000086 6:0.4210000038 7:0.3014999926 8:0.3249999881 
10.0000000000 1:2.0000000000 2:0.6150000095 3:0.5000000000 4:0.1749999970 5:1.3769999743 6:0.5584999919 7:0.3300000131 8:0.2919999957 
10.0000000000 1:2.0000000000 2:0.6150000095 3:0.5199999809 4:0.1500000060 5:1.3435000181 6:0.6290000081 7:0.2605000138 8:0.3449999988 
-10.0000000000 1:0.0000000000 2:0.6150000095 3:0.5099999905 4:0.1500000060 5:1.2960000038 6:0.5450000167 7:0.3314999938 8:0.3199999928 
10.0000000000 1:0.0000000000 2:0.6150000095 3:0.5049999952 4:0.1650000066 5:1.3400000334 6:0.5314999819 7:0.2815000117 8:0.4099999964 
-10.0000000000 1:0.0000000000 2:0.6200000048 3:0.5000000000 4:0.1650000066 5:1.3070000410 6:0.6355000138 7:0.2545000017 8:0.3149999976 
10.0000000000 1:2.0000000000 2:0.6250000000 3:0.4900000095 4:0.1550000012 5:1.2085000277 6:0.4650000036 7:0.1620000005 8:0.4110000134 
10.0000000000 1:0.0000000000 2:0.6299999952 3:0.5049999952 4:0.1650000066 5:1.2599999905 6:0.4524999857 7:0.2754999995 8:0.4059999883 
-10.0000000000 1:0.0000000000 2:0.6349999905 3:0.5099999905 4:0.1700000018 5:1.3554999828 6:0.6190000176 7:0.3050000072 8:0.3899999857 
-10.0000000000 1:2.0000000000 2:0.6349999905 3:0.4850000143 4:0.1650000066 5:1.2944999933 6:0.6679999828 7:0.2605000138 8:0.2714999914 
-10.0000000000 1:2.0000000000 2:0.6399999857 3:0.5099999905 4:0.1650000066 5:1.4859999418 6:0.7595000267 7:0.3319999874 8:0.3210000098 
-10.0000000000 1:0.0000000000 2:0.6549999714 3:0.5199999809 4:0.1650000066 5:1.4095000029 6:0.5860000253 7:0.2910000086 8:0.4050000012 
10.0000000000 1:2.0000000000 2:0.6700000167 3:0.5849999785 4:0.1599999964 5:1.3090000153 6:0.5444999933 7:0.2944999933 8:0.4129999876 
-10.0000000000 1:2.0000000000 2:0.6750000119 3:0.5249999762 4:0.1550000012 5:1.4785000086 6:0.6280000210 7:0.3404999971 8:0.4199999869 
-10.0000000000 1:1.0000000000 2:0.3700000048 3:0.2800000012 4:0.0949999988 5:0.2865000069 6:0.1504999995 7:0.0689999983 8:0.0794999972 
-10.0000000000 1:1.0000000000 2:0.4099999964 3:0.3100000024 4:0.0900000036 5:0.3389999866 6:0.1550000012 7:0.0694999993 8:0.0900000036 
-10.0000000000 1:1.0000000000 2:0.4099999964 3:0.3050000072 4:0.0900000036 5:0.3535000086 6:0.1570000052 7:0.0745000020 8:0.1000000015 
-10.0000000000 1:1.0000000000 2:0.4099999964 3:0.3100000024 4:0.0900000036 5:0.3334999979 6:0.1634999961 7:0.0610000007 8:0.0909999982 
-10.0000000000 1:1.0000000000 2:0.4149999917 3:0.3300000131 4:0.0900000036 5:0.3594999909 6:0.1700000018 7:0.0810000002 8:0.0900000036 
-10.0000000000 1:1.0000000000 2:0.4199999869 3:0.3199999928 4:0.1150000021 5:0.3759999871 6:0.1689999998 7:0.0920000002 8:0.1000000015 
-10.0000000000 1:1.0000000000 2:0.4199999869 3:0.3149999976 4:0.1000000015 5:0.3434999883 6:0.1570000052 7:0.0794999972 8:0.0900000036 
-10.0000000000 1:1.0000000000 2:0.4250000119 3:0.3400000036 4:0.1000000015 5:0.3819999993 6:0.1640000045 7:0.0960000008 8:0.1000000015 
-10.0000000000 1:1.0000000000 2:0.4250000119 3:0.3149999976 4:0.1000000015 5:0.3770000041 6:0.1644999981 7:0.0719999969 8:0.1049999967 
-10.0000000000 1:1.0000000000 2:0.4300000072 3:0.3249999881 4:0.1000000015 5:0.3644999862 6:0.1574999988 7:0.0825000033 8:0.1049999967 
-10.0000000000 1:1.0000000000 2:0.4300000072 3:0.3249999881 4:0.0900000036 5:0.4250000119 6:0.2169999927 7:0.0869999975 8:0.0949999988 
-10.0000000000 1:1.0000000000 2:0.4350000024 3:0.3249999881 4:0.1199999973 5:0.3995000124 6:0.1815000027 7:0.0610000007 8:0.1124999970 
-10.0000000000 1:1.0000000000 2:0.4350000024 3:0.3400000036 4:0.1150000021 5:0.3925000131 6:0.1825000048 7:0.0780000016 8:0.1145000011 
-10.0000000000 1:1.0000000000 2:0.4399999976 3:0.3449999988 4:0.1299999952 5:0.4494999945 6:0.2090000063 7:0.0834999979 8:0.1340000033 
-10.0000000000 1:1.0000000000 2:0.4399999976 3:0.3249999881 4:0.0900000036 5:0.3499999940 6:0.1480000019 7:0.0670000017 8:0.1049999967 
-10.0000000000 1:2.0000000000 2:0.4449999928 3:0.3350000083 4:0.1099999994 5:0.4354999959 6:0.2025000006 7:0.1094999984 8:0.1194999963 
-10.0000000000 1:1.0000000000 2:0.4449999928 3:0.3499999940 4:0.1299999952 5:0.4194999933 6:0.1694999933 7:0.0944999978 8:0.1194999963 
-10.0000000000 1:1.0000000000 2:0.4499999881 3:0.3600000143 4:0.1299999952 5:0.4779999852 6:0.1909999996 7:0.1270000041 8:0.1369999945 
-10.0000000000 1:1.0000000000 2:0.4499999881 3:0.3549999893 4:0.1049999967 5:0.4444999993 6:0.1969999969 7:0.0930000022 8:0.1334999949 
-10.0000000000 1:1.0000000000 2:0.4499999881 3:0.3449999988 4:0.1099999994 5:0.4699999988 6:0.2354999930 7:0.0855000019 8:0.1134999990 
-10.0000000000 1:1.0000000000 2:0.4499999881 3:0.3350000083 4:0.1049999967 5:0.4469999969 6:0.2335000038 7:0.1529999971 8:0.1190000027 
-10.0000000000 1:1.0000000000 2:0.4550000131 3:0.3549999893 4:0.1250000000 5:0.5325000286 6:0.2249999940 7:0.1260000020 8:0.1465000063 
-10.0000000000 1:1.0000000000 2:0.4550000131 3:0.3750000000 4:0.1199999973 5:0.4970000088 6:0.2354999930 7:0.1054999977 8:0.1295000017 
-10.0000000000 1:1.0000000000 2:0.4600000083 3:0.3600000143 4:0.1000000015 5:0.4634999931 6:0.2325000018 7:0.0930000022 8:0.1150000021 
-10.0000000000 1:1.0000000000 2:0.4600000083 3:0.3449999988 4:0.1049999967 5:0.4490000010 6:0.1959999949 7:0.0944999978 8:0.1264999956 
-10.0000000000 1:1.0000000000 2:0.4650000036 3:0.3650000095 4:0.1150000021 5:0.4670000076 6:0.2314999998 7:0.0925000012 8:0.1129999980 
-10.0000000000 1:1.0000000000 2:0.4650000036 3:0.3700000048 4:0.1150000021 5:0.5339999795 6:0.2610000074 7:0.0979999974 8:0.1430000067 
-10.0000000000 1:1.0000000000 2:0.4650000036 3:0.3449999988 4:0.1099999994 5:0.4415000081 6:0.1755000055 7:0.0904999971 8:0.1199999973 
-10.0000000000 1:2.0000000000 2:0.4650000036 3:0.3499999940 4:0.1250000000 5:0.4819999933 6:0.2300000042 7:0.1059999987 8:0.1094999984 
-10.0000000000 1:0.0000000000 2:0.4699999988 3:0.3650000095 4:0.1199999973 5:0.6119999886 6:0.3269999921 7:0.1500000060 8:0.1400000006 
-10.0000000000 1:2.0000000000 2:0.4699999988 3:0.3650000095 4:0.1199999973 5:0.5820000172 6:0.2899999917 7:0.0920000002 8:0.1459999979 
-10.0000000000 1:0.0000000000 2:0.4749999940 3:0.3700000048 4:0.1250000000 5:0.5370000005 6:0.2220000029 7:0.1215000004 8:0.1500000060 
-10.0000000000 1:2.0000000000 2:0.4749999940 3:0.3600000143 4:0.1199999973 5:0.5914999843 6:0.3244999945 7:0.1099999994 8:0.1270000041 
-10.0000000000 1:0.0000000000 2:0.4799999893 3:0.3750000000 4:0.1150000021 5:0.6765000224 6:0.3204999864 7:0.1064999998 8:0.1700000018 
-10.0000000000 1:0.0000000000 2:0.4799999893 3:0.3849999905 4:0.1449999958 5:0.6399999857 6:0.2924999893 7:0.1404999942 8:0.1574999988 
-10.0000000000 1:0.0000000000 2:0.4799999893 3:0.3600000143 4:0.1000000015 5:0.4390000105 6:0.1940000057 7:0.0989999995 8:0.1150000021 
-10.0000000000 1:0.0000000000 2:0.4799999893 3:0.3650000095 4:0.1199999973 5:0.6014999747 6:0.3120000064 7:0.1169999987 8:0.1400000006 
-10.0000000000 1:2.0000000000 2:0.4850000143 3:0.3700000048 4:0.1150000021 5:0.4785000086 6:0.1994999945 7:0.0954999998 8:0.1289999932 
-10.0000000000 1:0.0000000000 2:0.4900000095 3:0.3849999905 4:0.1250000000 5:0.6489999890 6:0.3199999928 7:0.1239999980 8:0.1694999933 
-10.0000000000 1:0.0000000000 2:0.4950000048 3:0.3950000107 4:0.1350000054 5:0.6334999800 6:0.3034999967 7:0.1295000017 8:0.1494999975 
-10.0000000000 1:0.0000000000 2:0.4950000048 3:0.4000000060 4:0.1350000054 5:0.6100000143 6:0.2720000148 7:0.1435000002 8:0.1439999938 
-10.0000000000 1:0.0000000000 2:0.5000000000 3:0.3899999857 4:0.1350000054 5:0.6595000029 6:0.3145000041 7:0.1535000056 8:0.1564999968 
-10.0000000000 1:1.0000000000 2:0.5000000000 3:0.3849999905 4:0.1199999973 5:0.5600000024 6:0.2834999859 7:0.1030000001 8:0.1350000054 
-10.0000000000 1:0.0000000000 2:0.5000000000 3:0.3849999905 4:0.1350000054 5:0.6424999833 6:0.3194999993 7:0.1289999932 8:0.1535000056 
-10.0000000000 1:0.0000000000 2:0.5000000000 3:0.4000000060 4:0.1250000000 5:0.6725000143 6:0.3359999955 7:0.1199999973 8:0.1825000048 
-10.0000000000 1:2.0000000000 2:0.5049999952 3:0.3899999857 4:0.1299999952 5:0.6740000248 6:0.3165000081 7:0.1410000026 8:0.1784999967 
-10.0000000000 1:1.0000000000 2:0.5049999952 3:0.3899999857 4:0.1500000060 5:0.6850000024 6:0.3619999886 7:0.1309999973 8:0.1560000032 
-10.0000000000 1:0.0000000000 2:0.5049999952 3:0.4099999964 4:0.1250000000 5:0.6420000196 6:0.2890000045 7:0.1330000013 8:0.1550000012 
-10.0000000000 1:1.0000000000 2:0.5049999952 3:0.3549999893 4:0.1250000000 5:0.6010000110 6:0.2500000000 7:0.1204999983 8:0.1850000024 
-10.0000000000 1:0.0000000000 2:0.5099999905 3:0.3899999857 4:0.1350000054 5:0.7689999938 6:0.3935000002 7:0.1455000043 8:0.1899999976 
-10.0000000000 1:1.0000000000 2:0.5099999905 3:0.3750000000 4:0.1000000015 5:0.5784999728 6:0.2380000055 7:0.1225000024 8:0.1749999970 
-10.0000000000 1:1.0000000000 2:0.5099999905 3:0.4050000012 4:0.1350000054 5:0.7689999938 6:0.3655000031 7:0.1585000008 8:0.1800000072 
-10.0000000000 1:0.0000000000 2:0.5099999905 3:0.4050000012 4:0.1500000060 5:0.7034999728 6:0.3470000029 7:0.1340000033 8:0.1885000020 
-10.0000000000 1:0.0000000000 2:0.5099999905 3:0.4099999964 4:0.1449999958 5:0.7960000038 6:0.3865000010 7:0.1815000027 8:0.1955000013 
-10.0000000000 1:2.0000000000 2:0.5149999857 3:0.4300000072 4:0.1400000006 5:0.8339999914 6:0.3670000136 7:0.2000000030 8:0.2300000042 
-10.0000000000 1:0.0000000000 2:0.5149999857 3:0.3899999857 4:0.1550000012 5:0.7124999762 6:0.3695000112 7:0.1369999945 8:0.1550000012 
-10.0000000000 1:2.0000000000 2:0.5249999762 3:0.4149999917 4:0.1400000006 5:0.7239999771 6:0.3474999964 7:0.1729999930 8:0.1749999970 
10.0000000000 1:0.0000000000 2:0.5249999762 3:0.4000000060 4:0.1400000006 5:0.7325000167 6:0.3339999914 7:0.1574999988 8:0.1700000018 
-10.0000000000 1:2.0000000000 2:0.5299999714 3:0.4250000119 4:0.1299999952 5:0.7584999800 6:0.3249999881 7:0.1969999969 8:0.2049999982 
-10.0000000000 1:2.0000000000 2:0.5299999714 3:0.4250000119 4:0.1500000060 5:0.8495000005 6:0.3280000091 7:0.2319999933 8:0.2020000070 
-10.0000000000 1:0.0000000000 2:0.5299999714 3:0.4050000012 4:0.1250000000 5:0.6514999866 6:0.2714999914 7:0.1605000049 8:0.1860000044 
-10.0000000000 1:2.0000000000 2:0.5350000262 3:0.4000000060 4:0.1350000054 5:0.8215000033 6:0.3935000002 7:0.1959999949 8:0.2049999982 
-10.0000000000 1:0.0000000000 2:0.5350000262 3:0.4300000072 4:0.1400000006 5:0.7164999843 6:0.2854999900 7:0.1595000029 8:0.2154999971 
-10.0000000000 1:0.0000000000 2:0.5350000262 3:0.4350000024 4:0.1400000006 5:0.8740000129 6:0.3734999895 7:0.2290000021 8:0.2195000052 
-10.0000000000 1:2.0000000000 2:0.5500000119 3:0.4449999928 4:0.1550000012 5:0.9904999733 6:0.5440000296 7:0.1780000031 8:0.2179999948 
-10.0000000000 1:2.0000000000 2:0.5500000119 3:0.4300000072 4:0.1400000006 5:0.8105000257 6:0.3680000007 7:0.1609999985 8:0.2750000060 
-10.0000000000 1:2.0000000000 2:0.5600000024 3:0.4550000131 4:0.1599999964 5:0.9670000076 6:0.4524999857 7:0.2070000023 8:0.2739999890 
-10.0000000000 1:2.0000000000 2:0.5649999976 3:0.4000000060 4:0.1299999952 5:0.6974999905 6:0.3075000048 7:0.1665000021 8:0.1800000072 
10.0000000000 1:0.0000000000 2:0.5699999928 3:0.4499999881 4:0.1550000012 5:1.1950000525 6:0.5625000000 7:0.2565000057 8:0.2949999869 
10.0000000000 1:0.0000000000 2:0.5699999928 3:0.4499999881 4:0.1550000012 5:1.1935000420 6:0.5130000114 7:0.2099999934 8:0.3429999948 
-10.0000000000 1:2.0000000000 2:0.5699999928 3:0.4550000131 4:0.1500000060 5:1.1069999933 6:0.5400000215 7:0.2549999952 8:0.2700000107 
-10.0000000000 1:0.0000000000 2:0.5699999928 3:0.4449999928 4:0.1400000006 5:1.0635000467 6:0.5264999866 7:0.2195000052 8:0.2399999946 
-10.0000000000 1:0.0000000000 2:0.5699999928 3:0.4600000083 4:0.1700000018 5:0.9035000205 6:0.4074999988 7:0.1934999973 8:0.2140000015 
-10.0000000000 1:0.0000000000 2:0.5749999881 3:0.4749999940 4:0.1599999964 5:1.1139999628 6:0.4954999983 7:0.2745000124 8:0.2899999917 
-10.0000000000 1:2.0000000000 2:0.5749999881 3:0.4600000083 4:0.1599999964 5:1.1030000448 6:0.5379999876 7:0.2210000008 8:0.2489999980 
